const brainz = '[{"id":"07011d9c-c4a1-4df0-9ff9-9deee5b2de24","age":526898,"movements":1225,"travelled":415.80371855755027,"brain":{"levels":[{"inputs":[0,0,0,0,0.9667648784498315,0.8665262154527048,0.8224897375549519,0.8219346187060278,0.8647112355864283,0.9631317367512126,0,0,0,0,0,0,0,0,0,0,0.9559639910955158,0.9553187871420559,0,0,0,0,0,0,0],"outputs":[0,0,0,0,1,0,1,1,0,0,0,0,1],"biases":[-0.25198032816896726,-0.04670731635917637,-0.2734789169071607,-0.5011248688883322,-0.46585412555252287,0.23188878385241493,0.05074896968915969,-0.7403466043899551,-0.43122480006413977,0.5173527456303512,-0.022975634010803745,-0.030555889552005888,0.20032153841313796],"weights":[[-0.19440141139733505,0.38868643531465996,0.18416572503678968,0.13948968029899833,-0.2375848788736954,0.5778304029617243,0.24427854923860173,0.4498554056701486,0.48189094345110917,-0.4883590959446072,0.6570804575654969,-0.15083293448468682,-0.6331534950156429],[0.2201231187574922,-0.5564426082217807,-0.4274867727306402,0.06813817182181518,0.5543799096636783,-0.28284199754672923,0.2055236537286602,0.1020833338826499,-0.01420323398715859,0.15888980253037716,-0.3677636585765433,0.403653336447271,0.09235641564524874],[0.4858218034200905,0.47402147702189174,-0.08630055398782721,-0.36252063346958774,-0.36908930629110226,-0.24468253586236832,0.5984417684525783,0.5235568632459183,-0.25624040065901865,-0.3595959832384316,-0.36424538387392363,-0.5292093787214385,0.23146723656510587],[-0.28999058524260396,-0.06825349364548118,0.15880620005753554,0.47494079674141976,-0.012486549695867431,-0.19234306319610844,0.10977710883847965,0.6655125233177684,-0.3897041891819628,0.46657159818191873,0.17455985587615774,0.02161141335064798,-0.33418047692430836],[0.12339913456184087,0.2564275581632234,-0.05647685279382545,-0.2723831230944354,-0.17302806982982757,-0.014730720801760983,-0.17267556658887032,-0.1374966662515201,-0.21037386537419672,-0.32326126848484277,0.030398625054291886,-0.20903592919088357,0.4687947556110066],[-0.5705806478088012,-0.39348216812724374,-0.048024129099007745,-0.0489528800089996,0.034146928343961686,-0.06904490706718386,0.655280922074549,0.06783583586466521,0.01505019529932381,0.5487024294553187,0.05039826043475438,-0.5448295074528665,0.46923735054547056],[-0.25399211191417725,0.47353989817821895,-0.3514842127682612,-0.07791282115774854,-0.5574522562768388,-0.551117062342356,0.045380507106193915,0.08079417847595836,-0.5314624594717391,-0.09068133358058539,0.015029977982047882,-0.4013169276982897,-0.1196077662906044],[-0.20677243644019164,0.23994245873818074,-0.1090415587935228,0.3293516508788328,0.7535045365506033,0.2499771317176143,-0.3142130955319514,0.060399793609345095,0.35375870134771226,-0.017966808478736284,0.2722122684343878,-0.5718014049774589,-0.3739925104300012],[-0.0933285054008659,-0.39887268524767583,-0.026472031842800198,-0.33024518756355453,0.35074417241392136,-0.26125318075038806,-0.2123328758279221,0.06927945115446696,-0.5077119137090516,-0.1345846340552703,0.29341114685007036,-0.20829975217570482,-0.3136496050422501],[-0.2079124434415977,-0.39369406572040866,0.2564718034401969,-0.43391964665442495,-0.2856117158400909,-0.26295967830532097,-0.19231953765197007,-0.38958131326455403,0.4198190210226586,0.07390958044735989,-0.3898964049565446,-0.5535439285670674,0.2324439720852586],[-0.2604663831472134,0.15832924541012272,-0.11992968281989144,-0.5800398806583659,-0.1532280618892495,-0.375542428728527,-0.05382381483687079,-0.06985177440859686,-0.2451756059443928,0.0033875649236122965,-0.23371327223481778,0.3195992161569925,-0.31293091323455174],[-0.048506296151481505,0.03427622403323338,0.03462245969400087,-0.27078305342766285,0.3638001275696071,-0.2557408049300488,-0.4340230738755208,0.32145507931751627,0.26455069794645514,-0.27442971763794477,0.47697961281645035,-0.016643321396427296,0.3616911670927093],[0.6525692470471555,-0.2801872467418623,0.5432087611008533,0.37946841892379696,0.5176305450581775,0.059369776044517444,-0.5435509534874609,-0.37826601202384436,0.4508988221870671,-0.38747999873941485,0.3757770050166109,0.5744533463728524,0.17774107190584504],[0.3880721051597354,0.27522857334682405,0.052935332640628704,0.4021939740410394,0.39901388044113134,-0.36705686087071254,0.3651413079986934,-0.14001382498057932,0.2415488479463715,-0.42417177996667554,0.13721169499697805,0.0009523450795231917,0.4231900273738371],[-0.05291015064522172,0.048854221488754734,0.4995101698629452,-0.17428279549315145,-0.3238781916077364,0.36860265507997547,-0.4693031631548683,-0.39931002908026186,0.42814445547015917,-0.0555466052326449,0.5448730381335013,-0.1723606689453231,0.5654542937830899],[0.31170202784836526,0.08584808394181245,0.28284516538341803,-0.0865859183418482,-0.5113891821037047,-0.16464714376638598,-0.04220454298147961,-0.45205214141361094,0.015173338153633838,-0.021334776533490665,-0.26497904160006075,-0.21429315762395978,-0.065985881482564],[0.17977604001039627,0.3795504638756674,0.21468202195787287,0.06942014004378758,-0.4307802150647489,-0.23812281208822192,-0.3219552909420152,0.3206241846197407,-0.44660419849228483,0.681129466947564,-0.2877287754738725,-0.3268049839868857,-0.6026921877816653],[0.5977550054081339,0.35598264908830113,0.37945586383821983,-0.010262620763419694,0.2792712216990562,0.33990399248429815,-0.4086209187853238,0.14459671342540492,0.25082138377316693,0.5276175137600786,0.24022582346429827,0.32737474634421215,-0.19192483455770673],[-0.6069764379698092,0.31628026864291825,0.3973659861325628,0.24605031350382048,0.5000786275377382,0.1444028580492761,-0.04069956264544488,-0.18804823229488066,-0.34808753651930174,0.34902437318735097,0.15891601689609783,0.19116649557707513,-0.02102800787517834],[0.40966018473332455,-0.010396224780117867,-0.007170109995772479,-0.25801061474176834,-0.41989887143878873,0.4560975181034896,-0.16390678185322383,-0.25405065518521525,-0.09024750453193389,0.22702346934331558,0.4622048670213578,-0.05991620058352947,-0.2983166191395713],[0.40640655246338564,-0.47015192742946404,-0.4648060090359362,-0.41608817494434397,0.5492541911110613,0.06768138979768602,0.14712662711478652,0.3310269066358373,-0.3183498709320717,0.20153144858239053,-0.5209017815230537,-0.381186366569272,0.3753639087471716],[0.14203541381641166,-0.3494088273298587,-0.06517179468388186,-0.45623761588170986,-0.36857558977880855,0.03670458182309242,0.10994652770565146,0.3802440411033773,-0.015117721223503812,0.15245340311498096,-0.47005090424218393,-0.5386537762561304,-0.25615580518267544],[0.11147903392399683,0.33812462947952787,-0.2546625111090316,0.19798279293414,-0.34225572257306364,-0.36224457218066636,-0.3575960391568928,0.3087136768329618,0.1230853372285293,-0.236076132754059,-0.19964055494553576,0.5021749186314287,-0.29746312353994564],[-0.6036391868662282,0.4378627831751891,0.07784286412606944,-0.2507971951258743,0.2886372314165143,-0.4923648692744899,0.23468899031403773,-0.10783398248079325,-0.6114376549378843,-0.5906089574787078,-0.24154182715398215,0.1711053579312577,-0.5441953792306079],[0.20567654817705092,-0.5274056658331533,0.3274696675663991,0.33390735076112915,-0.22710125373507487,0.09109065818993636,0.37284536647746674,0.3296087971256818,-0.1462505158632505,0.1679277011684058,-0.14362734574790403,-0.40048409410056995,0.045058585173395775],[-0.03476221848653157,0.42463392941013084,-0.2467750448526255,-0.7308432056476357,0.5280858171061271,0.56153030717856,-0.3657090466629464,0.49954718218190297,-0.1132622934601327,-0.0539744679896492,0.42771655303483974,0.46206229255937165,-0.0909565248960666],[0.009543394856821024,-0.322369811237614,-0.49013452529665386,-0.5644091867188223,-0.4247809713891218,0.09445511749904434,0.03809152145450669,-0.2651402584117892,0.019273387937381852,0.39425176897493136,0.08450799605126907,0.30521465212194016,-0.22765505755171492],[-0.20883211347425204,-0.32172251611377634,-0.4142866009557877,0.16022932586198602,-0.22543941203438614,-0.09306913007663047,-0.3329575761614499,-0.3336630824234219,-0.28146727076433214,0.32955729367512,0.3866948016611566,0.12458685421652116,0.48039731864414104],[-0.2642531219198577,-0.3779625781473761,-0.04314796028355075,-0.48802139054714416,-0.2651614731204617,-0.35008881171671385,0.09316120551988406,-0.006056707147119894,0.12391561408206275,-0.0956767685577405,-0.07359279638748614,0.24146312770936854,0.389233485517078]]},{"inputs":[0,0,0,0,1,0,1,1,0,0,0,0,1],"outputs":[1,0,0,1],"biases":[-0.26735720261464857,-0.2037013535401348,0.14753089510692305,-0.1018057057260826],"weights":[[0.11038634466778324,0.07561985550293215,0.4775655638707342,-0.18343746663830096],[-0.34707701726576523,0.12642873887776107,-0.31022983790946473,0.43053996729805194],[-0.6471553931445359,0.012103429080501056,-0.001590205670228535,0.49953628130909145],[0.3169359102460417,-0.2420224234585862,0.392950492538488,-0.15092732313670315],[-0.1907957083382382,-0.549678034322224,0.509283784732336,-0.16969820034624827],[-0.4357344239352439,0.29638343774908316,-0.1991310538459359,0.3721056585576827],[0.4298376924553275,-0.23303022889798727,-0.5765749193999139,0.2946943055741027],[0.5701513514365742,0.4368535095810115,0.5435798407323911,0.17103618306817142],[-0.5312896525208773,0.13855312154634253,-0.7157507030151932,0.3296971017327028],[-0.4759655524416956,0.27476925380033274,0.42253795527189325,0.3855549440664153],[-0.12695355107877085,-0.5057860672822608,-0.6209961889262066,0.2814377518930629],[0.24576824119940738,-0.4613424642587786,0.626832801780067,-0.10513432257832048],[-0.052651550639978374,-0.6365533453377689,-0.5788068505053326,0.11416288785180137]]}],"hash":-320897465},"height":8,"width":10,"fitness":15359,"kills":0,"score":653842},{"id":"b569a108-456a-4b9e-a28d-b7528ffcb58b","age":277143,"movements":1898,"travelled":984.6766931694577,"brain":{"levels":[{"inputs":[0.26768852690582046,0.4321929616590011,0,0,0,0,0,0,0,0,0,0,0,0,0,0,0,0.9622189189387836,0.9334672666156714,0.9527738986226638,0,0,0,0,0,0,0,0.26691587111632503,0.26768852690582046],"outputs":[1,0,1,0,0,0,0,0,0,1,1,1,1],"biases":[0.24593902856104197,-0.04617407926407783,0.1767687272702994,-0.49738655890768363,0.4429923255299261,0.5714561372527154,0.5914043881277474,0.26384034676816026,0.18273646805542057,0.42151024979828355,0.31362334628172284,-0.31662592996195227,-0.3420296232199769],"weights":[[0.5664505893965036,0.44428779229362425,-0.5308367255378998,-0.3947384648235503,0.3212935259794846,0.5156997522419139,0.4799055176661802,0.2960597716040807,0.5708662013059369,-0.0883427580735209,-0.23363126461133127,0.53433355858652,-0.07817215640744539],[-0.20449385691018973,-0.15739447490073846,0.3279023990614128,0.31596940434336046,-0.5749979924702169,-0.11011428336012512,-0.5134994088121898,0.21666351503489667,-0.404222711974237,-0.19089089657692182,-0.05500757568695542,-0.21387956310033335,-0.2067599547494602],[-0.030038574424769617,0.0574213876341885,-0.5928080375210764,-0.4301274181684898,0.08053875530641355,0.009469625103450924,-0.4691898771847704,0.493812326207445,0.1177514246215784,0.060681848881877325,-0.2721800534646682,-0.3994208583570329,0.2513394997203462],[0.003686910690043889,-0.2848868616332921,0.0367084124525265,-0.010272269954048206,-0.34428403605429414,-0.3107663492597833,0.43915865476319715,0.5067225035365072,0.3346958708206087,0.5745759821219196,-0.3717900595157788,0.3355705718341901,0.0694863390540118],[0.08340421747228545,-0.4434940366841822,0.5463544378897579,0.01855454415853529,0.2713166501029433,0.2410080310020279,0.2837429611578766,-0.5529927510862185,-0.11820041151922277,-0.26415199101946557,0.5399946240174742,0.44113473678825543,-0.08148541227383237],[-0.19969903947500944,0.5197313543245621,0.1934721314791736,-0.166342565880951,0.09954938242439632,-0.2606931111394706,-0.01226598283081623,0.567738092662209,-0.4184220779540564,0.47365028001466863,-0.06693992060573796,-0.21705035054178476,0.1524464274564717],[0.22956248437807156,0.6597013689257308,-0.3973132717896904,0.09693916346612531,0.31881545862369315,0.2175321119208363,0.07698092362513574,0.3300766008623254,-0.35278693608537987,-0.442444299111767,-0.4643283423627094,0.025067965809531738,-0.022489425699571436],[-0.30155768641358904,0.09928315253924862,-0.49894173364224687,0.05926766117488528,0.3230776697137735,0.5374484744257851,0.27896403302480066,-0.1659484762617204,0.4313818806447725,-0.20959434158831305,-0.2844014224886986,-0.1162135371903024,0.029594454976325006],[-0.1863081327579555,0.1924377509816554,0.19834216837394034,0.0008832540792695926,0.2682935006302162,-0.32618279320885246,0.06049383808849278,-0.5224484248119369,-0.5573812446423547,0.42815659835636116,0.062088649161736995,0.5783348599723521,-0.3231437145119419],[0.3930975752896253,0.4148125001036938,0.06280328269991797,0.49402922796170884,0.2935296897321978,-0.3874940839403052,0.595026535533002,0.23095222338266913,-0.5324068272867242,0.025503010047200243,-0.1487215520188418,0.08666732846716682,0.236819315322898],[-0.02562479454012605,-0.39507866294156896,-0.44639220747847674,0.2672039091838135,0.04752375975045487,0.5886600949955282,-0.19532852563219727,-0.4732305295996754,-0.18730313048279532,-0.20246927572628418,-0.1126304809021285,-0.3334369080051228,0.27770370478985046],[-0.0048353336258269005,0.14326096069419084,-0.19531149500349768,0.39338460296633715,0.24463608370755466,0.223665682094474,-0.18634918965866373,-0.09069013084941535,0.4101116720845332,-0.49784398172960337,0.43300085662483045,-0.38366959309566595,0.3125861143885148],[0.24981566190635843,0.02718137300259816,-0.02575989479873463,-0.2273603679167272,0.1965915546628221,-0.3245903404842085,0.5425324111226254,0.06729544336333515,0.6369759062034741,0.5555219593082167,0.48719755723954866,0.13736350682441045,-0.31253069481687906],[0.41605515205850485,0.15845195943565865,-0.3915802052752594,-0.5143745351543652,0.53061340842361,0.5921900553567467,-0.3632932320875995,0.0745564722792662,-0.4787833968326318,0.2710947284515779,-0.4457039807300414,-0.30083018189320987,0.0233169904187505],[-0.3761238344361553,0.3504195590463277,0.21125654955581016,-0.3505533153648584,0.5365717075177123,-0.4505370554105499,-0.22025824541343644,0.17326878401087684,0.38898897464637855,-0.3132969611384957,-0.14296382993869328,-0.283465485611656,0.35099982156315096],[0.3786321874410349,-0.34627063831732074,-0.40838405390281496,0.48619332365641166,0.24797755528086135,-0.2766891464805472,0.08691336014179152,0.33791441133278094,-0.5136254395049087,-0.22111517015846283,-0.18851625191399515,0.337921783414611,-0.4085048938016676],[0.264358547567666,-0.27712094433100903,-0.08335081947657574,0.32512125689699833,0.12941738947023843,-0.10501162195710163,-0.22994328244705298,0.15691572382779526,0.22158736410266824,0.3140090495719209,-0.49716134482229707,-0.17832704499384666,-0.21319209742144746],[0.23005789386257805,0.343399943389721,0.11221995588519085,-0.4881498375627113,-0.39909514402353563,0.39948084332499145,0.013695317182191916,-0.39008302941240675,-0.16414965086629604,0.1856785248872661,0.5513531460339085,0.17074515839080898,-0.12049911370840313],[0.23329375725818796,-0.31724123173339425,0.21912175729797012,-0.4016805183752614,0.24950808685134662,0.11028838767264457,-0.48474043257489663,0.2893329523522982,-0.216939177858498,0.4075882900260051,0.34304502333053805,-0.029916891431920063,0.3521758773443648],[-0.12926474911404426,-0.19395310395593449,0.14270589598324135,-0.09575041338362228,0.15622484011808008,-0.06721172734480042,-0.3455440836742398,-0.067339657980954,0.15564908307574923,0.19145426691736356,0.37889948948965424,0.0644004329434584,0.5555802627377044],[-0.07454872155765721,-0.3062414825240728,-0.41380843384312843,0.23949365074931955,0.5640030217480311,0.24368827754083547,-0.23833166580057968,-0.11563316510338892,-0.47169987448312145,-0.5991497914818342,-0.589212037965239,-0.25157088588489435,-0.21738523922710332],[-0.3076254184034646,0.22921405455371863,-0.2507465700024835,0.2384659796200085,-0.48688996195116135,-0.19752598445369593,0.06520657337318392,-0.20162881442307581,0.11938131022114823,0.20116476870597857,-0.3823496636914283,-0.07387354321113303,0.4383334089819685],[-0.4950415565333465,0.4410841224370192,-0.2907620541962823,0.2809708359030848,0.19614009507694963,0.10755553938112733,0.05915454231925914,0.025470207655349963,-0.07013525445728366,-0.08136524895246422,-0.20582197496459234,0.21119197163632325,-0.13615777526544964],[0.2523706244379121,0.13507810855461247,0.12767591849590182,-0.09285497079638894,0.04531425579019597,0.37119824794905587,-0.0698666413269673,-0.6174537906065353,-0.3790291330252356,0.3989295727398082,-0.5882256156923257,-0.20420028656757908,0.46981376683197534],[-0.12393278523329537,-0.40754912034473784,0.03384930962786501,-0.10352778755183091,-0.29447087534646543,-0.2423829403574624,0.18214187319156736,-0.10618606206679394,-0.4984946416134926,0.28924189085456997,0.27291435808349446,0.3805279421332674,0.00911468975282621],[0.4754434976054187,0.45889590288912113,0.3927548447478537,0.3439477444244716,-0.1746494508534828,-0.6432938480295202,-0.09751734335274352,0.14810456628442661,-0.5277066110675324,-0.17360652033064222,0.06888630918740142,0.48316166177655057,0.10592258580759581],[0.21788576905682325,-0.3418441056071997,0.2953776920932887,0.44816391602242955,0.18254571151570806,-0.49069640328957714,-0.12641483748369112,0.2824037659937324,-0.23333900595945395,0.22713419053586656,0.3638038712741026,-0.4723014033581528,-0.38716037612989435],[-0.5317468624285184,0.1973927489673125,-0.10991176213689553,-0.566574929575613,0.031113611021973558,-0.502844946469572,-0.38436826348762937,-0.28580817278067694,0.013570808280287243,0.060096661195962034,-0.08125496200916092,0.503012811474057,-0.2513590885395396],[0.2798306542429015,-0.5446674844654588,-0.2736593329274051,0.5236137907557894,-0.3279648107828474,0.08298487567703532,-0.33740836051519013,0.24644018582788946,0.04222286261703669,-0.2356372213271062,0.050837414407373,-0.18152936123479266,-0.31487275735122494]]},{"inputs":[1,0,1,0,0,0,0,0,0,1,1,1,1],"outputs":[1,0,0,1],"biases":[-0.19838875183594643,0.4220993179784597,0.03678259735365312,-0.3486274842065642],"weights":[[0.03154744857331796,-0.4360306082658358,-0.2849258124937902,-0.27284623911612427],[-0.31240349393972483,0.22393993408647336,0.5550196254081384,0.052329676923237894],[0.3797907958235621,0.23511824339434392,-0.17695794998699402,0.5346749848028562],[-0.449138778007676,0.018276086165318298,0.09904875433996144,-0.46910608338498866],[0.007838143862551161,0.0025109820912081215,-0.3721878849850149,-0.33804406436782],[-0.1090988596981082,-0.2753404877567385,0.7359909487601605,0.26068112903851864],[-0.15675477058203352,-0.09394426360142215,-0.37204706610154586,-0.298501963121643],[0.3349161893188186,-0.22381525522241333,0.04115524051673835,0.3003331283464425],[0.23344724358718272,0.4163399437077816,0.36121014338938157,-0.28659552583253556],[0.28901284920269743,-0.032887748891092874,0.2513519574536784,0.22091441287961694],[-0.06941649438058922,-0.06252039916495622,-0.4130614860446453,0.46654814558849517],[0.28823782023050276,0.2266001538645244,-0.2964195715159225,0.16092274037461862],[-0.48211079974690585,-0.08168464593901274,-0.2821496753398825,0.5381676952707474]]}],"hash":-664928008},"height":8,"width":14,"fitness":744728,"kills":0,"score":635796},{"id":"5548ca63-d500-4a54-8f91-60afcaa31d03","age":151591,"movements":2764,"travelled":1095.7037368141118,"brain":{"levels":[{"inputs":[0,0,0,0.7344657343418183,0.5885789839584439,0.5124826932762528,0.4748974217142542,0.46413169389024816,0.4772437707679126,0.5178397921680573,0.598802478284725,0.7546260893419915,0,0,0,0.8406320916343298,0.4416181139440211,0.3100128988990547,0.24843511210435548,0.21631539491837704,0.2004509121412668,0.1959067729998143,0.20144128982390377,0.21857658925254908,0.2527503782424125,0.31852244509597644,0.4618741158155428,0,0],"outputs":[1,0,0,1,1,0,0,1,0,0,0,1,1],"biases":[0.1988330668387672,-0.029463235116433433,0.13928611768562732,-0.6728497643240791,0.4817981204018055,0.4595880612259901,0.4930035663999032,0.2202219357908579,0.28001473872384386,0.5163036613432436,0.14341132840830625,-0.43793149148526617,-0.5175903768103508],"weights":[[0.5289245281474604,0.528490795191214,-0.6575787523441531,-0.37229297179444587,0.5315546632403089,0.5255399757526563,0.5126460322094473,0.18927292192492054,0.4741668243464525,-0.18486014575365128,-0.26533287505561304,0.6767627972960201,-0.1697382614714998],[-0.26807869317799715,-0.09907785136993083,0.4433109545531251,0.36452676644366777,-0.5994635513270157,-0.16547868071770294,-0.6875075646342941,0.24492165874608918,-0.6329113764475955,-0.25723192217748947,0.08860512489792038,-0.13852016590004543,0.05606776204520078],[-0.1493598591479822,0.0013306972627623458,-0.5797380746343723,-0.4812341630128085,0.05158410613383407,-0.13547092342240083,-0.6388457117624327,0.6687083475412153,0.05925095519555337,0.08204258073958232,-0.31937588090994506,-0.6672802672579732,0.3371090108719511],[-0.015940749886462574,-0.15796928279262432,0.06471167054584578,-0.009003513357482904,-0.5291600963744938,-0.15366758646701736,0.4092179966487026,0.42408262164196625,0.28619470154592486,0.6353124534308879,-0.4551598124130296,0.3279852064021989,-0.036091507012138875],[-0.003335731145240435,-0.5697701804106635,0.4401475781315855,-0.030862268412833235,0.37733535315990735,0.3845254922756544,0.24663137400305485,-0.5030228453705204,-0.2071938434596383,-0.269079037003073,0.7093478360795181,0.6393190570606206,0.0773042179654441],[-0.12263066126113742,0.4690931238551173,0.200763374879791,-0.21010636559281728,0.11025309498593035,-0.32220848670243274,-0.11427764730743296,0.4844066783912818,-0.33321896954728886,0.4193252314527074,-0.20462832679757442,-0.3401857886855266,0.05023007244177899],[0.08514025150790853,0.4798319076477415,-0.36948979161609974,0.3159992009978551,0.34312318186312585,0.22596354151472936,0.18486618999079427,0.35413188874700585,-0.5308878633979637,-0.31922057497268286,-0.6054395386295461,-0.10114186670872141,-0.3195009851456322],[-0.21185714326278554,0.18808062685439977,-0.4790889593160571,0.1099272041673437,0.5077531659105087,0.5690033336234697,0.34241768613839557,-0.40553464116600335,0.5376850811314308,-0.15976800382553474,-0.2559036510391078,-0.11509347136981381,0.20841159946145718],[-0.10238392557643645,0.3021252893149545,0.13613497007712028,0.13379580342645178,0.2734959141975959,-0.16510970261127578,-0.049648927952468655,-0.518666130097273,-0.5376396803374347,0.47595123642807413,0.025629260908496047,0.5371711585252782,-0.3869771207777114],[0.44592060845770704,0.44956490036962454,0.14761175802855728,0.3775945668983226,0.5598360746804028,-0.5507813745334165,0.5491925597976456,0.41790796373246697,-0.5626588571800467,0.048462822877855354,0.008772813858887393,0.1352182735888569,0.3077011854069941],[-0.00003215501313117916,-0.39832790398982715,-0.42795170827896606,0.30652131576881364,-0.02038029542966286,0.5420666649635679,-0.12421720611087529,-0.5052355433194604,-0.06248795511394481,-0.15806610740273905,-0.03443907986522743,-0.3444784173696407,0.4223189523095135],[-0.1665913574912774,0.11211024802937732,-0.13274372041986685,0.48818103511418737,0.30210049443184284,0.30339551960016037,-0.15231089964685474,-0.13427756954530845,0.6379529369796413,-0.5287133498408205,0.43807174400296084,-0.15141769853735448,-0.0014242595705355014],[0.3566282570075584,0.10717831924949278,-0.10741509166505575,-0.03513773695002949,0.10132734467761803,-0.33926168593893274,0.6091893434594764,-0.033441438620197474,0.5494158251986014,0.42014864317547146,0.3132358275965076,0.23156598382242183,-0.3435156915893119],[0.4110916769558193,0.10187703707062319,-0.42898545575775715,-0.4165420126447481,0.6374352194842191,0.5525673417118784,-0.6450202915417932,0.17343327474253042,-0.2607297225849649,0.28631206341941207,-0.5471694993228393,-0.42454757098145907,0.15390357781491146],[-0.3766444752650208,0.4520594289595049,0.42867741738765636,-0.41166095360143,0.6755374883647607,-0.43627056956206695,-0.2864210589597071,0.12568123746796986,0.5610369414408248,-0.30221437444215904,0.009668211619966567,-0.16179967096530123,0.22131121286220673],[0.40515723974647183,-0.35625615840450864,-0.566605649646441,0.5395093102292251,0.24238132612512112,-0.36028674320858606,-0.16334698746243434,0.4585958417125151,-0.4690494048624889,-0.08647601740949601,-0.24935085133595808,0.2775573704742992,-0.33044683669680214],[0.11702608167506466,-0.35683359544679444,0.11441652293519936,0.4108955381404964,0.23833920013879298,-0.17101655831255397,-0.23190949421479837,0.1788432244628766,0.11330892931103059,0.22892380356584247,-0.30951664712113136,-0.33338227200943904,-0.19096196117770103],[0.18184469034936587,0.37754460459940636,0.1431623751576823,-0.5557813433233287,-0.42727054658386704,0.4873533174355381,0.14387621668270434,-0.32952935598687133,0.03414900330408692,0.23350226126822426,0.4877491056757054,0.17802704515333467,-0.05447414304610004],[0.10140377806870315,-0.18204728456050615,0.15805635287345382,-0.44554325764538993,0.35631783358673724,0.1608437067321184,-0.5840648930725205,0.5084178163864869,-0.24354891484287866,0.2536668173538472,0.3702901888030041,0.16203106188031619,0.1674643712561873],[-0.23096956825164708,-0.1354207592507952,0.08674719869982031,-0.27150676669830875,0.32142001858977826,-0.2406551027684878,-0.268254752731186,-0.019367860880176686,0.29257227191528207,0.12561642296044015,0.37096333855641234,0.0011771748713689054,0.6456433104548687],[-0.02734507170153278,-0.322084291818174,-0.5128607855584948,0.24262862831105939,0.6611088815930558,0.14538688427626198,-0.1577312118392934,-0.05504486001247031,-0.5761665570628571,-0.6349425758209389,-0.46076523384869966,0.06430542125909836,-0.19990670167312513],[-0.3588500586556256,0.3368153824804804,-0.22085763966800182,0.24710262237651967,-0.5339597643181815,-0.3833509505948164,0.13268251297831324,-0.1529979861765828,-0.25071102971518805,0.44759190208461747,-0.3764869214815498,0.05570514331193365,0.40681233899386054],[-0.6618090568429391,0.4981876692940881,-0.38197219950501865,0.38766759816302304,0.26107176806362514,0.345404644536113,0.13672137254870304,0.2875737754292142,-0.0054387619941613655,-0.11333409491305738,-0.3815055784686606,0.18083287565235387,-0.24131415450608534],[0.3780891465357457,0.15720775384154492,0.19843397172604968,-0.08558329724746315,0.10116596778948837,0.6389854191206072,-0.1434007225122228,-0.5536913137112304,-0.4751287368797047,0.33484753349213864,-0.5804450124082761,-0.34482015008029254,0.36717463670442974],[-0.23924165799353814,-0.24055723462298795,-0.18188790079660905,0.10787820221874367,-0.23595131605255254,-0.4166001433543138,-0.010883493676061668,-0.11582814821465853,-0.38729517202794156,0.4463806266971613,0.2523775281913777,0.4390878481025304,-0.03908379083929799],[0.3692700090677334,0.38655279785477553,0.14138499163629445,0.4098970138381346,-0.1915382193433579,-0.6777260254829466,0.16503138838566228,0.26717249228073703,-0.40208571279759614,-0.004245877901741148,0.12922542086626357,0.5575313920666976,0.1323682219256786],[0.26479374107044373,-0.38934028926798686,0.4441452734341315,0.4241377967659419,0.07596211585316272,-0.6787916971461667,-0.24682832959987705,0.2695872972731879,-0.18090512073578527,0.20168284283055063,0.46128304010787485,-0.5843490495698935,-0.5433096977052011],[-0.5544090902516499,0.26130408593284177,0.07840129381474292,-0.5876147031987025,0.027667820891658132,-0.6777578757708388,-0.36296031690897934,-0.4000287651544264,-0.16998741976388426,0.3488187103052524,-0.04297419695616721,0.46737099248354974,-0.08604843497328707],[0.22463707022133986,-0.47102570583088815,-0.3066766580808158,0.5238296441679828,-0.4183234926536318,0.04179627006331535,-0.530166386354426,0.33401574902928843,-0.01801039389241369,-0.28695181784112567,-0.13400903246295395,-0.17363625426030166,-0.46929343750735125]]},{"inputs":[1,0,0,1,1,0,0,1,0,0,0,1,1],"outputs":[0,0,0,1],"biases":[-0.25737796864278595,0.3091766576315204,-0.11440104446992477,-0.7329320626187754],"weights":[[0.015489687900733292,-0.43914794992523587,-0.41285789570661796,-0.3042889188609019],[-0.3644661248052532,0.3991406706208682,0.6185664274895598,0.07402175103917298],[0.332881622978865,0.1447880492094537,-0.190855240224883,0.5142892541693176],[-0.38531388115100196,0.02940763737048496,0.187177492781764,-0.45427509885207995],[-0.12616991036553962,-0.009020516554464342,-0.39688846979882586,-0.4470551641886599],[-0.1750856043162575,-0.33185327567032474,0.5504924499706281,0.24169659684896877],[-0.19728935456271718,-0.15214363251256727,-0.4203309354414798,-0.4252035783818483],[0.4407458225837635,-0.15217855625167678,0.2792063759553493,0.31548326532281196],[0.19683726569932009,0.5826428030609659,0.1464639736442834,-0.34304728739924256],[0.21670194555661781,0.0193485433721027,0.3899545081623757,0.05476607569994508],[0.050461835813611626,-0.11001672879390574,-0.5775525704050495,0.4399539796531758],[0.2415157791993755,0.14566178881215947,-0.2390040288813332,0.2221955071029344],[-0.4618528892183749,-0.15292130440222884,-0.2564817456179156,0.6060021788777684]]}],"hash":-1642082671},"height":15,"width":9,"fitness":2424029,"kills":0,"score":551899},{"id":"75c8b9af-160d-4135-a6fd-8fa874079ff5","age":237922,"movements":1801,"travelled":1264.364638976918,"brain":{"levels":[{"inputs":[0,0,0.6403388848168882,0,0,0,0,0,0,0,0,0,0,0,0,0.7336323377673852,0.37624953014503654,0.2618303499012815,0.20880273644804048,0.29372997963322034,0.5727311115780499,0,0,0,0,0,0,0,0],"outputs":[1,1,1,0,0,0,0,0,1,0,1,0,0],"biases":[-0.3063812858882645,-0.2604353906769198,-0.7181568406661019,0.007287395159133923,0.6008770972797559,0.6146932855817945,0.28276352038862657,-0.15394583511948703,-0.6655958157497089,0.2929374638141493,0.5990432951358499,0.001584812798359053,-0.03717402125675788],"weights":[[-0.10217784955284097,-0.36081449252026604,0.14837316796669583,-0.36216400863412374,-0.14772901445133865,0.03113280958933165,-0.43854225962578486,-0.2275176085115946,0.5961712606263897,-0.33923741984985867,-0.5588584381757657,-0.01915651765838787,0.24150078158420774],[-0.6005899757272696,-0.06712381259358985,-0.21714594462206707,0.1470307973250295,-0.3260308088099798,0.256216379054318,0.2245689573944086,0.5004757986055577,0.23811742165195468,-0.19114428878995574,0.4598081035154976,-0.7369184054606531,-0.035278218880229195],[0.6391263516420841,0.017686718037129418,-0.037465847988032513,0.006414524855673297,-0.25654667819896043,-0.3274305331828635,0.12734810723491896,0.013151304889941352,-0.48621054568318073,-0.6023498728908665,0.31545010409468816,-0.04429048234801267,-0.48860749801695463],[0.7193418956023682,-0.5696569293864199,0.5498052742758398,-0.5497268877960773,0.19414587281755225,-0.517857253155443,0.07272498215851753,0.15702007968110163,-0.12419466826689327,0.3414094058517914,-0.4090692818589458,0.1326292999640753,-0.2906665318593321],[-0.01927781711237515,-0.23615451795651485,-0.45462931585130867,0.5404270338577335,-0.40264950291010476,0.39586631254138527,0.13164638683971328,0.2728344815937794,-0.6032181089686477,-0.6468481567812315,-0.34781956043882056,0.7212191494029266,0.06810019583637898],[-0.634690719905335,0.32398523736622437,-0.5937992819563884,-0.3514824432693553,-0.0325930206145635,0.46992328137078965,-0.08645828966463291,-0.1890779961896558,-0.3550328983651836,-0.3858119133049117,-0.5128645848387315,0.172350996694321,0.4962148755023122],[0.22626685666643995,-0.6743738475693655,-0.5124553346558371,-0.3946968098943214,-0.09665004693945464,-0.4133873157742961,0.20591190511447835,-0.18781220735974147,0.19941929746512058,0.6899861748293411,0.7369001834251313,0.3523135406499623,-0.006088097355850179],[-0.6430595128324649,0.5538308452778449,-0.2977306313144263,-0.4942610794298557,0.5050685384949227,-0.07726117459276108,0.253482226631134,-0.6430212214941871,0.6737563932074038,0.20268099224549874,-0.15178636393369835,-0.6053155565053604,0.616475499644059],[-0.5991076582243353,-0.20859002108243238,-0.13643527966545063,-0.5126096045220112,-0.11047154494172187,-0.17167982573952603,0.5309917252169547,-0.6951240192890008,-0.6215749393214965,0.5153514983347653,-0.19304113292704164,-0.16982642234203238,0.67314090179566],[0.07027745100530096,-0.05775043775125128,-0.4556096182777428,0.15983376645806516,0.27328382496543246,0.26718760960382626,0.25056612835449177,0.1004529440992509,0.2845004810101663,0.3685421808362729,-0.5890972933289051,0.36347778524818375,-0.546800983543903],[0.20110285829067304,0.6344644321508828,0.23610526105519555,-0.7001895713307317,0.12683011907930558,-0.021969868558292326,0.049436718422084545,-0.34591892715321904,0.3960257674166,0.12641866914279903,0.10848173036368253,-0.32321014698178896,-0.11576172077013468],[-0.5804810976678287,0.2959938095426325,0.5164155132853611,0.1420996150787303,0.2402483951064988,-0.43741696537948715,-0.6852846845929189,0.5701438785472727,0.5642898308853045,0.124913163862504,-0.5454622126129599,0.262106966804255,-0.5269433418161524],[0.14199722462183675,-0.1347428856380888,0.31961617095602396,0.5709946668619937,0.560884403999865,-0.40407800001324845,0.05686813192229863,-0.3227832853175554,-0.433888486748945,0.09468836511745389,-0.11606203651622564,-0.5988304926796723,-0.10067652096557389],[-0.050632501960886235,0.3468303202403509,-0.5386395691533433,-0.3514837844560635,-0.4040868371453396,0.2635862119286029,-0.06801209975424213,0.10014798087838354,0.12926129911491135,-0.5995153416576599,-0.32247009841085644,0.11795858921627213,0.060178140954696244],[-0.009039762685785485,0.479112751216468,0.04380389885116985,0.035365178390106417,-0.48321675546255033,0.13725172981389872,-0.5554551111108639,0.49880274563706817,-0.7127118288210544,-0.30078825406244947,0.26237543918104667,0.21805384071347325,-0.26031286253374275],[0.3332903373280796,0.08764061636160377,0.17710441354475287,-0.06461499483323979,-0.5976005539486313,0.4097699432751743,-0.4534830685213985,-0.07401094509141591,0.21811589262473605,-0.1912101033301546,0.30271408868090666,-0.004903692151084796,-0.0745758620617982],[0.3324284924978669,-0.14908187103637816,0.13454526562732153,-0.20664201106561683,0.2889487436609631,0.5672908993496679,-0.2594981592454137,0.19661366087988008,0.7127841947719826,-0.1538933235434061,0.24557524104405368,-0.40688099788076126,-0.3608479102601904],[-0.0016346442168447745,-0.3885556618861316,-0.3671703241507501,-0.12958170214472137,-0.2560714325530313,-0.21636580901314592,-0.08296849414428027,0.03591637536750558,-0.5289328237631628,0.31617076846202985,0.006406204054795619,-0.2587427260464665,0.4158992477903933],[-0.24129812951719198,0.0573478464170632,0.020426900337411576,-0.5370694833743096,0.1976546357265482,-0.12179416348772887,-0.15340474859929248,-0.5308069251893618,0.2642272673654912,0.34055860530285087,-0.5326311282031572,0.4518377446356367,0.49452003170960973],[-0.2498076482849955,-0.2590229889349302,0.23849887390526622,-0.6155503655783934,0.29940296273093836,0.03146843958212878,-0.2509843400313426,0.3355115715623108,0.526590007401216,-0.5712165363629594,0.07931697768554566,-0.515991791348849,-0.6958793301919886],[-0.6513222117969669,0.004333805829050437,0.2402410436898947,-0.16210535433801979,0.35358751318987264,0.22296854364496654,0.4131865816877059,-0.5609058993555849,-0.21988502305700755,-0.04244316748651231,0.335799266987576,-0.5866729269510707,-0.6276342744402991],[-0.012875843882362589,-0.4189511282779015,0.6830598064383315,-0.0426977422106707,-0.10197425511008906,0.08584367277150909,0.7049163703942741,-0.41636937806893304,-0.5106416589892712,-0.08796347728573765,-0.1262936550371541,0.7058106227560484,-0.6516338476295399],[0.3282167486534117,-0.13324249334265886,0.6299865764118523,0.3427253219957581,-0.4318324769329951,0.03089550642675934,0.6661234429429385,-0.12312525650585383,-0.7036796858564159,-0.4143801606449108,-0.12805026375355635,0.11481102047225088,0.28562837958819476],[0.08800599459107589,0.3879117269915264,-0.6789025098965016,-0.39478776303321933,0.2900973273214961,0.35999452171662666,0.14402765088654254,0.27076065941696853,-0.31620770788133845,-0.6546514052677036,0.18909414116632062,-0.37862609562650745,0.040418503112868945],[-0.6796455546707632,0.521520343156228,-0.29521818640019765,-0.5770420886026277,-0.6165527425117721,-0.5102455901615156,-0.18742314598060306,-0.669726039387684,0.621599150678927,-0.08878550012635607,0.4037894164647928,0.25024871981124297,0.15244228684905756],[0.205013265169814,0.0506175677460137,-0.4527448534323289,-0.5348693102290063,0.057279365295210063,0.05370324252663691,-0.2230339592360606,0.1410521447819134,0.09219154417820785,-0.14997164847978045,-0.286795637117644,0.6968520337226889,-0.5444610126166418],[0.3913589431729519,-0.2784789146525978,-0.5961284442538518,0.6599291539032077,0.47229606015619235,-0.5608853182369726,-0.37733732618324745,-0.2499699802187043,0.3026171626097856,-0.11050310718757833,0.781010870212896,0.026957083158811384,0.22886040808626207],[-0.5445769891130663,-0.24269646988865357,-0.24949937260902028,0.15185488762096339,-0.18788833875598066,-0.676525508598361,0.6175828038713567,0.45088205505642825,0.6271557192333465,-0.2768174424155992,-0.21828283855265593,-0.45208461160425784,0.04355590476765431],[0.2260450736295382,0.24636899462387313,-0.1533182914539367,0.5783152276759322,0.21703722501253936,-0.2860332338074499,-0.42676351043928407,0.3535503216438918,0.6202870587345299,0.6310018185568875,-0.527274775491369,0.5286730687894716,-0.41150458314400035]]},{"inputs":[1,1,1,0,0,0,0,0,1,0,1,0,0],"outputs":[1,0,0,1],"biases":[0.46300149140136493,0.5593043161464989,-0.003891566227303142,0.42699027778354504],"weights":[[0.4471524037702677,-0.12325026412240765,-0.6365764205591754,-0.6501971129518165],[-0.5165043157223013,-0.5523167610802232,0.5405911738400272,0.1591715804017261],[0.30703847394442174,0.22102005719458392,-0.7830627057193417,0.43410952898370614],[0.30477176606248013,-0.5932640113272386,-0.340670521571414,-0.2641579973115398],[0.21589622375086678,-0.1424597613351418,0.016900760569851046,0.44180900678881446],[-0.1510966180542996,0.40391594893239074,-0.39109930292984657,0.06008638103929222],[-0.4973205534690516,-0.45895454354958104,0.00391926138818128,0.37244254753176853],[-0.3342303684474906,-0.0751939090257466,-0.6870801022064948,-0.32743173579558577],[0.1607037713085301,-0.2709533463141925,-0.10279015738277436,0.3787169904066698],[-0.1569813404220403,0.3107919584122119,0.35273017915596167,-0.5434162446212595],[0.14021281334784746,-0.5435495460236309,-0.4454193922155363,0.37487964720847544],[0.1988569267197369,-0.6925884993003505,-0.5333449949725945,-0.4492654867656454],[0.38764103081696183,0.14263952454650355,-0.33798235072674493,-0.5299178124457211]]}],"hash":-1091925251},"height":9,"width":6,"fitness":115725,"kills":0,"score":444313},{"id":"0eaf1436-0a9e-4fe3-92df-a701531638d4","age":801814,"movements":344,"travelled":276.4317826450581,"brain":{"levels":[{"inputs":[0.659516112795436,0,0,0,0,0.9402063424650444,0,0,0,0,0,0.6299979843548733,0.5536052673235529,0,0,0,0,0,0,0,0,0,0,0,0,0,0,0,0.659516112795436],"outputs":[0,1,0,0,1,0,0,0,0,0,1,1,0],"biases":[-0.5750799579220388,-0.8047291016561299,0.5702386124319728,0.40499178317988593,0.0559653292966316,-0.7540896271953607,-0.3423710450916937,0.6479902508463367,0.4071955185928566,-0.15184987312955794,-0.5905918992225243,-0.8241491261512951,-0.42307720228947177],"weights":[[0.6204990214840232,-0.7091757403986789,0.04363659065374989,0.48440176457015255,0.19097928594989444,-0.7685460324788136,-0.8050807823666869,-0.13625026206201662,0.962468422202178,-0.2621463475683977,-0.26465448348982396,-0.05795323703207547,-0.10686330009089844],[-0.1298481623848345,0.9705584684968301,0.8072074171632561,0.17664154726558018,-0.4656054112459542,0.002888926801073697,0.8656881162841372,-0.9211653488194056,-0.9765788747880194,-0.6519983562817739,0.25624546865627273,-0.1521262760970512,-0.08496497951536709],[-0.48889931482157384,0.8455215113349887,0.7816744151449307,-0.8462774100287008,-0.7235582383362953,-0.427059430495605,0.7628381304431155,0.19570658565385238,-0.42218703577389216,0.3472641397595005,-0.7660872457685302,-0.536964466908299,-0.12022310794131917],[-0.7237100143117877,0.36421646206453323,-0.357711665538111,0.49940537503830346,0.8649004632401438,0.07125388639288031,-0.7031115339331937,-0.6930480823741413,-0.33926652238909233,0.7065921528281371,0.8874102332403242,-0.723045430805255,0.39479644615260795],[-0.0643464423462432,0.6544458751610005,0.5547400681764585,0.10389972973585677,-0.8991712726980992,-0.9672269109683013,0.9001076465592592,-0.6792531787330951,-0.7373880738817239,-0.4594187021756116,0.03778520932948345,0.8433072038270352,-0.4851318717986904],[-0.4189173963751073,0.31644929150314244,-0.8552007556689857,-0.5085330079010659,-0.8009951954406321,-0.8241979782793114,-0.28394418487539513,-0.3596387537808185,-0.7371030211271348,-0.21128561107226831,-0.22408959206038429,0.5862826132459511,-0.06603866065254321],[-0.2693904621917663,0.1469030323811669,0.017186947338962234,-0.3578457044354248,0.06697080584341682,0.8697055558931381,-0.6158296830665767,0.25374345418520433,-0.9093478233814857,-0.8763329726161327,-0.6499621002979499,-0.23390915645878899,-0.30482932674823066],[-0.27181417075837033,-0.5894692294244028,-0.19888138539719163,-0.13868583207174537,-0.33913949149067396,-0.44987524693268743,-0.11562295168874963,-0.10468865032952779,0.13583858763760037,-0.7495106467848299,-0.6966337780628749,-0.2570917219200671,0.6270449138186535],[0.5076271979076965,0.6676152907915974,-0.644180805672053,0.45601356128763926,-0.2190638050285507,0.21500734370937066,0.37993874346224765,0.5126132777154367,0.36947584654965326,-0.53246527054127,0.027957986578007687,-0.013712535781363517,-0.9622180210555719],[0.26802022804887976,0.591494061529125,0.6957835460125844,0.884642620144276,-0.22799262912003512,-0.8180921835214862,-0.3601761103353792,-0.23443616692647581,0.8128366713870459,0.14681818919957135,-0.16667111947257998,0.7350166311736135,0.06449687461117043],[0.5777649017189622,-0.31901099565996144,-0.20026987649952163,0.16448386963055137,0.9873405479180594,0.9531040325695626,0.9365091029070117,0.7740272236895185,0.8556682476040866,0.5599532026082974,-0.303587279045794,0.5634032038444671,0.5927022189492197],[-0.5890558762809861,0.4890541286340906,0.3127634954879524,-0.8384797114133409,0.7033424169427437,0.4439693731690412,-0.5989182747521102,0.29147375822240673,-0.5227679043545962,0.00817517148986567,-0.26654344826966897,0.817125058590717,-0.6655357836066151],[-0.799667469305358,0.4889168349027884,0.9003447331830707,0.23086341400018404,0.9452913264612994,-0.7659234599539291,0.6184901798323925,-0.007677524284661117,0.41309887537113626,-0.7979807712630084,-0.1976713861542059,-0.4789379641432494,-0.8331404380872871],[0.7384386055483222,-0.1112449676419743,-0.6999147440386893,0.8899359187057101,0.09089904178017724,0.7431801332740938,-0.35403844914922783,-0.6596860979584372,0.6950466459426781,0.9421577256330346,0.8179678563467673,-0.5114456278120658,-0.3351138077923228],[-0.029101987854977508,-0.03536665753731112,0.027751502917854085,0.9532493396862304,-0.9030118790625219,0.8110252810798716,-0.6773374316121769,0.2982515592618505,0.3407707739406592,-0.6425951057730316,0.5607851894125484,-0.030457130408642695,0.5166319895748256],[0.5839481047019808,0.7745026437910962,0.23142985964782412,-0.9841894611439073,0.22074903491780415,-0.47128659746143675,0.3456363654629916,0.717300129532432,0.39415353411508924,0.847548018602433,-0.05665388347924081,0.24399415270862845,0.4067658078638893],[-0.9812090618396186,-0.24269080318045438,0.41552995993601677,-0.33499695908401556,0.1672612690887214,-0.27052094672618504,-0.08503199842423667,0.2879490963564277,-0.6523747255825239,0.5869679756804572,-0.5768054365076868,0.8180793138633119,0.23234303231935668],[-0.40854194106429087,-0.3541947047645363,-0.06047782129215419,-0.01994690155479509,0.14924025439043032,-0.8017457347107309,0.468285333293595,-0.8892894515721319,-0.959277469927303,-0.5297233914029088,-0.7422211233698559,-0.4303904578835439,0.7247568387372302],[0.7426950243268872,0.007013856074081159,-0.8365845378782254,0.5455102593531721,-0.6983977132686451,0.14262230005248866,-0.15150950562211085,-0.9306901933800968,-0.7140077736784128,0.18230187493247088,0.3529164660732338,0.5554351880792795,0.7288870411689354],[0.11266500653351598,-0.5078687554002148,0.283837903406442,-0.24416094946332625,-0.13599410360728792,0.6958986850039758,0.15261761344819982,0.8296365262904019,0.36281753791778054,-0.5723654818266296,-0.06579133329411119,0.5566771367487071,-0.21993386328725992],[0.29158228991199164,0.039684391847366794,0.9685912451456083,-0.45050090597370773,0.17903087612601815,0.34148193394476406,-0.5605674206968317,-0.9202204816082427,0.15554623559060438,0.07543466753909694,-0.1326276517157805,0.178732311152424,-0.1905030001598768],[0.08421480793126687,0.1640333568978931,0.26580572374946565,0.7874515773946019,-0.5140335280052021,0.13662705477510326,-0.8171637289425966,-0.3906226056193147,0.45622681175401847,0.7987708139884612,0.03419875320077677,0.5537657906619222,-0.3465037795301963],[0.2042627254983898,-0.9095799209892566,0.48660590853513846,0.25487441082834683,0.7259597872483821,0.7614976081797137,-0.5118928029968519,-0.54628837999975,-0.8611090593054311,0.6830119982442898,-0.299926550636295,-0.49062790878695156,0.9636813856545661],[-0.49871172649592277,0.3204874266513985,-0.3568408799097488,-0.6159038209400874,0.4055249951518993,-0.6777067534356598,-0.4381412124974575,0.4924003309507308,0.15576404942022856,0.20597397815214008,-0.37935959151941734,0.041849684570311206,0.518683589527228],[0.3815507504914473,-0.16621374841824363,-0.14048305107820536,-0.24661135643018017,0.8100317831878058,0.2248740539267714,-0.09028039145341232,-0.6122513212128167,0.8992699881861222,-0.2171353558016089,0.36907772880471407,-0.49049314545534023,-0.6226278025956216],[-0.700439803627809,0.3288053146519929,0.24033116054447595,0.6266908892071843,-0.9521979227460566,0.02167409809100317,-0.7543027618797491,-0.8497239173684492,0.26453522951434394,0.10365703429788349,-0.21704259072208643,-0.7790686640976472,0.8689857562443558],[-0.6550361199294147,0.44584362860031457,-0.11208036594011757,0.6756063311024375,-0.8446240930468272,0.3517172375239824,0.1882999829167866,0.10796827498432379,0.46615791564269016,-0.7249730104724805,0.8989770566429087,0.9275649091227907,-0.7678686685038856],[-0.5572082762962762,-0.7046815968344242,0.25996968248576263,-0.13702903147978973,0.3578516117985825,-0.38432992401083577,0.3314458708194201,0.48864610066630293,0.707421033033135,0.48054276983929756,0.009026392571430283,0.6154845542419044,-0.6475862315425038],[-0.43204003118379175,0.6558292424074266,-0.8421791085791722,-0.7748077778686613,0.31348627436077525,-0.26498605637835043,0.3105906026388477,-0.5329465716371594,-0.9058743418608886,0.8164326844470314,0.4118599247592915,-0.19663944751987733,-0.4737362832123044]]},{"inputs":[0,1,0,0,1,0,0,0,0,0,1,1,0],"outputs":[0,1,0,1],"biases":[-0.13762540789199987,0.012146477613093093,-0.3336393330875106,0.15962122893890535],"weights":[[-0.165936329494182,0.31297517345553827,0.5636478923868746,-0.6438423181279211],[-0.3335552174453438,0.6411636584535908,0.3303532313043645,0.9745596445076669],[0.9064591977063362,0.8600984978168851,-0.8625925156834034,0.5100535664438542],[0.30958986888584283,0.5930749926701446,-0.3400124490887731,-0.1415842165092909],[0.5470809550087177,-0.17876720600178722,-0.021840320507768282,0.07310572620921844],[0.9518977223343803,-0.8650391591838549,-0.2683656156866731,-0.8842507682241088],[-0.7705696113735244,-0.1767480044912759,-0.671506963168975,0.39698603962785317],[0.8407523664676363,0.5664031565020172,-0.5370173259393874,0.8072185111969784],[0.3385562520988722,0.01468857574482987,-0.67455738528261,0.33196860923469834],[0.527317273166073,-0.37339363280387944,0.8330481122940572,-0.8434593158347614],[-0.5459429881602423,0.4704316022013592,-0.8845011502500035,0.6620295562236495],[-0.9465632085636109,0.05421722125104845,0.0350323420479812,0.8059290138371119],[-0.010337692442633876,0.15288851535103365,0.037390509353926654,-0.054922106003181766]]}],"hash":1135007154},"height":5,"width":5,"fitness":65913,"kills":0,"score":430988},{"id":"15fb08c1-f4c4-4a5a-bb45-fbb135128466","age":981340,"movements":56,"travelled":374.72839825340435,"brain":{"levels":[{"inputs":[0,0,0,0,0,0,0,0,0,0,0,0,0,0,0,0.8233571870979436,0.7139397972350174,0.6593778681320742,0.6424934387564983,0.6586552374097004,0.7122899459028003,0.8202087496825896,0,0,0,0,0,0,0],"outputs":[0,0,1,0,1,0,1,1,0,1,0,0,1],"biases":[-0.5704555232690727,0.8345841793020623,-0.22292438832166367,0.495752330718936,-0.9029514712952738,-0.17171768597901163,0.08381226804612212,-0.031774370797457374,0.5691543800412678,-0.6076631015560421,-0.8846340851729324,0.003386094364239395,-0.3615334481223108],"weights":[[0.5187450913964728,0.24468723399757694,0.5967849460464354,-0.8080157474590031,0.6428380906390521,-0.43455842108219034,-0.03212784588776587,0.4427670384965369,0.15951233295782385,-0.1258120718769839,0.8854834135848569,-0.23521191231164895,0.5094373871805177],[0.17040541261069536,-0.41587657695353,0.2616372806859521,-0.3616658726042977,-0.9179407046883569,0.6904919396217876,0.6813506601640579,0.5156866553477213,0.8083270223705956,0.17219153491685477,-0.11464178744841876,0.39903803978434094,0.49797536478847915],[-0.8121058383196738,-0.7943715712479066,-0.041691035045909916,0.38423323171696844,0.3481781908896417,-0.29180170806744454,-0.11516664415808917,-0.41788193870878876,-0.755300699486255,-0.07431437654158324,0.9083269845123557,0.7919093753033469,-0.7314643904171031],[-0.6431458307942342,-0.27186185184713807,0.343830856156384,0.21603573548998187,0.225922430123766,-0.8807852953808477,0.5579681774532435,-0.3638107467163603,-0.8158846265229788,-0.36180554140719257,0.10060839745161408,0.9303959586898598,-0.3321496820833735],[-0.29735368825728337,-0.8556319439325205,0.40955940290728665,-0.43526431286889716,0.7836647499131945,0.2343066639211171,0.009756097725606344,-0.8003732618316175,-0.3594689006292315,0.2353554709551452,0.1396081927077336,-0.5646124726354116,-0.28390826708353545],[0.4366433448270104,-0.0003099434701934814,-0.0840088560957159,0.1465012107423695,0.20814400348816606,-0.2916593123458811,0.2841634706526089,0.5578331012690899,-0.6594928768605013,0.011855797097526488,-0.4312352889584067,0.5169429623925851,0.30605234873378456],[-0.3203339571443334,-0.06378464014832268,-0.5812952543918873,0.04632109721787851,0.8559866436813752,0.023331421500880987,-0.21242406788097176,0.007407233875812658,-0.0006188021204390076,0.1427417127429242,-0.28038282499508616,-0.5309796177809533,0.40994424294310944],[-0.6811523923970444,0.8046953334907508,-0.14253808563237225,-0.610502727091294,-0.8298462236322773,0.7402365223118441,-0.9602991113666764,0.5444905745983966,0.5912317244674481,-0.41379196506383104,-0.0905500703178304,-0.15399038717001298,0.529492316474775],[0.40993096617640173,0.2157544278785971,-0.75684226615313,0.9421736631052267,0.29933805610216807,0.595027645969456,-0.6478344152330968,0.1516239853541886,0.8531193713119292,0.575175403561838,0.3990445437111192,0.6204176644018289,-0.5998422775400829],[-0.23000251048152182,-0.08867933262994421,0.3011630347709522,0.08883496074640573,0.20530357100196076,-0.4372866994247376,-0.5632227678711846,-0.433519205979023,-0.829545854174123,0.36769394678544254,0.10539128390718994,0.8437272978030025,-0.058626550392389176],[0.62560448291144,0.6100857308404919,-0.040763588392459985,0.06304703782579295,-0.29961922373849253,-0.6440991750157243,-0.25734462235300753,-0.5073901954542074,0.12356171304715549,0.6254976537475028,-0.4043390759053772,0.8934581006909427,0.3037600393617274],[-0.23952244966828368,-0.07649921464487983,-0.08824241282905557,-0.5213689718603095,0.7663378956721468,-0.18910609963599526,-0.29134006893259756,-0.7775403857710612,-0.8405324134009753,0.5295440710387294,0.6689424829926557,0.8709181199710317,0.6473797597667028],[0.28528428861771554,0.1707690608018741,0.04032857027220767,0.44223168942949587,0.7155845436381878,0.7748424714778355,0.1350629303537039,0.8227800092218047,-0.8446013435966524,-0.20651122741900152,0.20402044126204782,0.6952570078161912,-0.11556521519987184],[0.7238804024726799,0.20385394067297424,-0.17402923244748486,0.547428583230848,-0.9640840508402077,0.07196046849125001,-0.5547185327608176,0.7100386294277936,0.2953564316982284,0.14893466554593274,0.18510699999560182,0.0483680184048796,-0.0932734775305167],[-0.42592702800909915,-0.39600713283154565,-0.4973307354724057,-0.49444669821296605,-0.3893346884201497,-0.6871332163222051,0.03858233205740171,0.1482665351500316,-0.04027857015472476,0.5465259187876227,0.8590885620315616,0.14054245454708614,-0.7051831376339356],[-0.9288817732706446,-0.12685058064736998,0.18144529850201468,-0.6887247215251859,0.5994508548152799,0.5567200153655006,0.9421002534373593,0.7545523570597392,-0.5129415509364691,0.6053144881504684,-0.5532868851646762,0.3323242632045015,0.9205025580441669],[0.89066856682519,-0.1921397676015837,0.15357679135117647,-0.6412260744292914,-0.7799913919338209,0.3719559992700318,0.45409829381120204,0.6140521206645203,-0.3845314665533313,0.852596828869458,-0.29669257279792804,-0.7405873838976281,0.5831677570652852],[-0.6863390685052045,-0.6475540880952398,0.5352275882528293,0.39000722699070517,0.4674163029003977,-0.8304476014876913,0.685268520032654,-0.5232053399463249,-0.7509609359714464,0.875462966498656,0.23060088236434867,-0.6663904580273176,-0.4875224044423007],[0.6936477979315522,-0.26054929943269173,-0.5860047263268379,0.5954080320033887,0.38819204675730723,0.032286150898845324,0.3009475737808771,-0.053892873630456514,-0.2309672921706028,0.20038087784605693,0.77535021526355,-0.8163659775178203,0.6212453018755194],[-0.42930779417639575,-0.8515124206256319,0.43193640692074686,0.20960840624749377,0.09465049595899347,-0.493259159828592,-0.6322416809285073,0.12347779398733671,-0.1981093074130411,-0.4160231243952348,-0.06028040697413199,-0.6266763647736843,0.405122013478817],[0.041040734527271146,0.43762798719786694,0.16865112992119166,0.07833403929995907,0.3344795564288705,-0.7223432483708919,-0.3277801582137864,0.04126968181932591,-0.9450895581468065,-0.8456630121582586,-0.6883115192361682,0.0630068258948308,-0.6826862729148174],[-0.6605616468803938,-0.6171148995370808,0.26541642504370433,-0.7048526107032324,-0.8383022782884624,0.12152477073542406,0.8223233845834571,-0.7496841223058107,-0.7144149800336254,0.615905789825551,-0.8656721070874374,0.38667963976142633,-0.14793278122965164],[-0.45969553105961114,0.843797695427292,0.17330899219086796,-0.18013166043119627,0.6693337533668484,0.5131847630503741,-0.3984281159452585,0.34705735011392125,-0.7913510503883631,-0.824513360829639,-0.5087079827572727,0.5883911052129731,0.05483237394775049],[-0.2285896731653278,-0.6913413261076479,-0.9462017255091685,-0.6234470666671723,0.7805271872669179,0.9269811726255759,-0.5275636251537213,-0.5152120432114748,0.6180225308792148,0.41368414352037775,0.6607159529817886,0.03709906297087351,0.8114225969160797],[-0.5270400354168243,0.5871627368117165,-0.33791674687476697,-0.5252010603713545,-0.14827299643401187,0.32347514113982423,-0.1975675204732648,0.009284188107686789,0.41169847437173945,0.9022461507154822,-0.01817618226665499,0.4495645475540424,0.5163734227780076],[0.6129477268007375,0.7526941800924183,0.7505637059471697,0.4519577179534933,-0.0035836613331730292,-0.24915800708547622,0.3287742046824137,0.43312472824125847,0.4792956891460008,0.011939759820006168,0.07342595848821018,-0.1571069161489282,0.6568811946233037],[0.9467577665524504,-0.4786444674910543,0.6096714914575144,0.44708365893129565,-0.7034954718615335,-0.6013226119193703,-0.3772272949443636,0.9508231588902689,0.13973811270243353,0.39803723966712445,0.21068812345986232,-0.1799298345900795,0.7804568715692386],[0.05342790016097074,0.7826722912086628,-0.1633125809632502,0.28282849924867587,-0.00325445946891445,0.5262986395525683,-0.7451497136422871,-0.7823269325769018,0.40766234094763587,0.026811739629136785,-0.16575060098120695,-0.8276601459192353,-0.35029608576956145],[-0.14964880957786272,0.6567599784116097,-0.6970071444619063,0.26038861485617887,0.13274705230720693,0.9462929677912407,-0.08172756619511545,-0.42756143357523513,0.7057918762575195,-0.41074986940309555,-0.3146380972992906,0.7659742309353174,0.8624591969853396]]},{"inputs":[0,0,1,0,1,0,1,1,0,1,0,0,1],"outputs":[1,1,1,1],"biases":[0.23987287199839769,0.8639461457611655,-0.8973773978986815,-0.8721913517770922],"weights":[[0.08524829080235356,-0.5848382871315698,0.20797869445010755,-0.17683631354980836],[-0.2719850821948431,-0.6889943197947841,0.6157331149616158,0.8438249740687568],[0.014978009183037357,0.49154555509042647,0.5406097686285669,0.6781555636345982],[-0.8162481786357575,0.15696592750533572,0.07082028774135794,0.690243474714061],[0.9238836149215311,-0.43723055903569796,-0.1915295684973362,0.29697982635735354],[-0.7364299482559938,-0.08471294220703435,-0.027514377405049806,0.3943637643546406],[0.8892892745788791,0.5705756396151112,-0.6893880987535355,0.3315932798719264],[-0.4964841653956816,0.814213404769878,0.6421579359545609,-0.7710522399052997],[0.6502126931521208,0.8821310389058181,0.36847220532137676,0.47831063235481985],[0.5747100530437923,0.9691517652479376,-0.8482234529601281,-0.4151876387880004],[0.5797795713635421,0.5891684568530258,-0.4122477406669029,0.4886865624054456],[0.2867836534549604,0.41651672614534857,-0.08474579076707751,-0.015571117638244897],[0.6347521188939976,-0.7740499806745552,-0.2877659512270141,0.5965715756520606]]}],"hash":1690770352},"height":9,"width":12,"fitness":22397,"kills":0,"score":427440},{"id":"73c7bf17-3151-47e0-927f-142b2d841c74","age":1003300,"movements":328,"travelled":223.00454112177647,"brain":{"levels":[{"inputs":[0,0,0,0.171946416597236,0.16482965360804516,0.1662854414966978,0.17670695520359014,0,0,0,0,0,0,0,0,0.33678113633653406,0.30662560814040946,0,0,0,0,0,0,0.33464814308149504,0.3735974411321292,0,0,0,0],"outputs":[0,1,1,0,1,1,0,1,0,1,1,1,1],"biases":[0.23821179109389554,-0.7951015077979622,-0.6800459223219969,0.5177898734872571,-0.36181019497589023,-0.7859770457041958,0.9546910847771035,-0.8648103882684225,0.5993784585312549,-0.7328123081900836,-0.6279472060900737,-0.11321038822282425,-0.568624286988195],"weights":[[0.22517303017738363,0.9590917378300341,-0.40529684785364695,0.5852805825739197,-0.2949595997722948,-0.19709550650208593,-0.7142792089906137,-0.8608238463148887,-0.7581117769167399,-0.598998328685846,0.29487488110286547,-0.11929616789642529,-0.5967759053499937],[-0.8376248472333766,0.28615636351791973,-0.21663363384298512,0.17384334493732623,-0.7099930944807104,0.41251337822766954,0.26722217152662486,-0.35755088630366183,0.8968278159564729,-0.25800487665919947,-0.25210822870017824,-0.06521247496633219,-0.33363729765519473],[-0.7205446468993448,0.40379373642345934,0.31215556254042426,-0.7143376741384853,0.37261030001534545,0.7030846457363599,0.6727779827724167,0.4468681860885207,0.7821498836709709,-0.011486046789027784,0.3071977380170993,-0.6014149103231206,0.4999762670482535],[0.7976601622584898,0.1085581206336872,-0.4935927571797751,0.19065487160930344,0.8816802982525452,0.30549194213720465,-0.30093911676455076,-0.13125133135773254,0.08045501788104052,-0.7551069801566896,0.5427722856460484,-0.11667928775828855,-0.9103520924390806],[0.7793995251925505,-0.7860482771908006,0.6872202197635604,0.7935290807894301,-0.3182985522767705,0.7605873228046093,0.7326110690608247,0.8915743737502504,-0.674249762410584,0.27496059794683275,0.9650152813644804,0.016012698518474214,-0.3563534136703848],[-0.2043362727562523,-0.5245375733028461,0.23408162625304824,0.0383586117372026,-0.6552605199353136,-0.6594368488104335,0.7367658607268981,-0.8496109030042507,0.4365962243955788,-0.7312335761814132,-0.1875284505564342,0.08400484364635835,0.8391329027535566],[0.7149559838572728,0.7934319387317638,-0.8711936861753747,-0.30590630824149195,-0.4099013962396139,-0.5304025796289543,0.6548879796505415,-0.7411684026736404,0.47566986101644754,-0.5802588625256743,-0.520704114842561,0.6929890212301201,-0.6269940947927445],[0.34046041349878176,0.9855334669173689,-0.9578461134897219,0.35066961554285037,-0.08212908972057384,-0.45684289762546726,0.23657966157905555,-0.8496850705387311,0.06069283360865808,-0.7934252613107173,-0.7527290024549095,-0.04045432719945424,0.7466360931476179],[-0.7458781710384699,0.778788833823774,0.5659135665221057,-0.7152916244346582,0.002901439380953743,0.8397743377690842,-0.16016266973444107,-0.036465441905154196,0.6428597949076,-0.7528126426828161,-0.8254906632413133,-0.3098101020068495,-0.291974405203742],[0.4373086327407285,0.7215940145796613,0.9025529112426571,0.627931128423218,0.8146466224772112,0.7665328762446761,0.229661012800029,0.20000683465196076,0.032543665724781165,-0.31257794078636647,-0.34127173363874663,0.6289837614660548,0.18954783017539079],[-0.935577939565359,0.40322035804743694,0.591800384252457,-0.046426535164706545,0.696216976937163,0.4484695893042601,0.1542803620912526,0.417078959388163,-0.6930453164718019,0.3382022935177676,0.6198209021106816,-0.24599186762152875,-0.9485540343404053],[-0.5113517232997713,-0.5988196786233446,-0.9522255702556562,0.7341736832823521,-0.6930421070791665,0.6690339427932596,-0.7133030754275168,-0.17250114692589602,0.8573906522506025,0.1811881559029922,0.8686488712158124,-0.4822058436345631,-0.05124892720845455],[0.21853011988413074,0.03088446848137779,0.47722706203716114,0.9032089205553092,0.27656730068310836,-0.25475154654533205,-0.42992105069575326,-0.22961297752933804,-0.3791646795501565,0.4645419085040892,-0.8861573755850883,0.69904511880194,0.4367896786676976],[-0.21846826297350563,0.6966570012682922,0.18212520458512282,-0.33166512377328883,-0.688120510663192,-0.08636880800203256,-0.9679367813196171,0.07328160801017922,0.515951886955526,-0.9068433719188348,-0.14411940573002346,0.04005340000721,0.8298633844455617],[0.5224042869807457,-0.5544472162134206,-0.02730203279132661,0.002128743213831566,-0.003048987139189374,0.1482049134775068,-0.9226133009766744,0.26016674062913825,-0.4478267087771886,-0.3689097107522737,-0.5915114150020111,0.5646045370692072,-0.29802368519072364],[-0.13117270421106347,0.07763441681740202,0.0037088653170750004,0.5237645401191116,0.9423585142920533,0.5628924140259128,-0.9667672923228185,-0.3697204456246599,0.7548251350601328,-0.11045698051808979,0.30110908758929883,0.2191022968605396,0.9419342680762866],[-0.40330175343898766,0.8391245990666738,0.9026531720113248,0.08720490946257768,-0.5754737034925024,0.9073949577021997,-0.7871625600828441,0.6710097671239498,-0.34957119502434447,-0.63090610796457,-0.8791980990326919,-0.6156051742435353,0.8373797748329976],[-0.27620806891233596,-0.8433253990352496,-0.24476265775505998,-0.40644497120873774,0.4599426070530652,-0.3090354994770339,0.15114038632563803,-0.5667043940587235,-0.12727274565927826,0.8075021228934939,0.7628381236514881,-0.2314913986451086,-0.8986433465114738],[0.32529071630537437,0.29111084217446925,-0.41732791657932927,0.267745726955995,0.45420288401383174,0.28546429511948057,-0.4365157539444066,0.06902202451067758,0.31732289063749514,0.34013659343836344,-0.49630109144405243,-0.6263225734365648,0.5288806002923292],[0.6364493732389482,-0.8368742510572871,-0.40919820776871263,-0.7867700470074088,-0.09331916042146497,-0.35826928399531377,-0.5819132212858852,-0.0833988810903944,0.841898099751766,0.11992176993368145,0.5685232645577616,0.636218061685322,-0.9885304599339287],[-0.08130042804157399,-0.31317552823492356,-0.8985139691438663,-0.12417885165058336,-0.8648601775940742,-0.22958022195911382,-0.6426787185343278,-0.7709577248521677,0.5988489093732087,-0.4885314842347921,-0.10500126501685805,0.7407029843325739,-0.6435886110408993],[0.05066679928196933,-0.03370405617997062,-0.5475730521129589,-0.24008605854259896,-0.45354963618290267,0.2940830107649939,0.8703568423875213,-0.11385944959760572,0.2665367466218093,0.7752670803086158,0.2525595947830607,-0.009572353486887099,-0.10577474790828399],[-0.17554225977327448,-0.32996435633304927,0.20142773018818572,-0.9041324098920456,-0.5816829672646363,0.17974160725189747,-0.5644742989042859,-0.37925835967655713,-0.817933785588851,-0.4133709148848422,0.9727638320447368,-0.6041996398333277,0.32253228239537257],[-0.1779611920667084,0.5566622709222564,-0.3271202784377366,-0.49620323354131013,-0.5528847931172589,0.33555750040414645,-0.7632678789659623,-0.791647306590471,0.8751879935537203,0.7689038805015489,-0.6517834286414267,-0.30138810021801693,0.5480590922852742],[-0.023351550170081774,0.36487891184360527,0.6208761500124809,-0.3485972854634915,-0.33274828103117954,0.26800438639102275,0.12042949545897041,-0.8637715285129619,0.1149569647218548,-0.44359001402003284,0.571739704395083,0.4914309346382665,-0.320721392669158],[-0.2787531708786122,-0.8855629368393075,0.9278607104175315,-0.8038093484833452,-0.9543482854742833,0.9031821550562869,0.979478759194167,-0.46326784908368607,-0.504404702597799,0.9200386632779578,-0.9085853647119166,0.8125335611597635,-0.6100544301332597],[-0.41093076587494987,-0.8392425473925454,0.8143250467543164,0.9775754286884318,-0.7764539046407309,0.3165304177785168,0.23421733629762087,-0.8837917345284566,0.7845888774488325,0.5904019302404842,-0.7820575846871233,0.7826981731051718,0.2480324839536104],[-0.08278954331032205,-0.5826470675958819,-0.2507656539156768,0.14783045335137482,0.932806227377658,0.737586938372472,0.20589101185212585,-0.8256969004237762,-0.7283833580946644,-0.34114167416551205,-0.6436587138371591,-0.5341407212393342,-0.9374494249062866],[-0.7118807019169957,0.78251558562436,0.3653011466473248,0.9564388099786929,0.12419384935513868,-0.6587325046617001,-0.6984697476720656,-0.44888733099021233,-0.16045331697471688,0.4949876455287082,-0.5742077152517464,-0.6714888419878665,-0.6263396706374188]]},{"inputs":[0,1,1,0,1,1,0,1,0,1,1,1,1],"outputs":[0,1,1,1],"biases":[-0.9011981693311795,0.35179637437823014,0.1122284974955089,0.773637643435548],"weights":[[-0.011351918191958955,0.49587444160545857,0.31523673705567234,-0.0169611781593432],[-0.36613809399805486,0.8469631406691405,0.6025508622670688,0.8201509022987545],[0.9564783467292576,-0.34905800325271,-0.8795394136384656,-0.4431401080671468],[0.6158398359957277,-0.13045572505628952,-0.7328106292543339,-0.6522919281336838],[-0.701976963330775,0.010163374803190796,-0.5656482661329397,0.9672222469592785],[-0.37305385652432554,0.2960312485177884,0.581727085679996,0.24986222875957814],[-0.7356056522927442,-0.85824820697385,0.20242536803269362,-0.6918471854376294],[-0.40122688609228924,-0.9825290829842631,0.8565881043776197,-0.4099345836221784],[0.8551572419702991,-0.9126293389791931,-0.5948594659285773,-0.13027757520265748],[-0.5269710870547301,-0.4699342205983889,0.04497672584074501,0.4944361316774573],[-0.3009807422826958,0.7585178245250922,-0.5971147472022579,-0.34026834257093597],[0.054553910362362464,-0.2903810651527592,-0.42461660708003157,0.5698774466635906],[-0.9616393837813858,0.5759838449588297,0.7217955460753461,0.2053408079817589]]}],"hash":-1628741968},"height":5,"width":10,"fitness":31518,"kills":0,"score":427051},{"id":"72c22a78-570b-4915-854f-758065a533d0","age":808053,"movements":268,"travelled":611.9744697485854,"brain":{"levels":[{"inputs":[0,0,0,0,0.7252974847878758,0,0.3598737021355589,0.39181435863210434,0,0,0,0,0,0,0,0,0,0,0,0.8954649702272138,0.7692836773438205,0.7052683696485991,0.682691752802543,0.6952994730331618,0.7465195509134591,0.8520068484747841,0,0,0],"outputs":[0,1,1,0,0,0,1,1,0,1,0,0,0],"biases":[-0.12665428821778751,0.5782395495159783,-0.6412323026789469,0.16650491406269616,0.08995359040451643,0.11771348683941042,-0.22794579939737097,-0.514132466787633,0.540211623572929,-0.08504540005488162,0.40739981628671396,0.1623610843136668,0.46348538986754567],"weights":[[0.5393812123853842,0.03972468065024341,-0.3649948211723781,0.3839116375103677,-0.4119633827498602,-0.6226368625833211,0.07300620418706233,0.4707332427660039,-0.5002129035165501,-0.01578497137668569,0.32672704641905576,-0.4594289388464334,0.13564508471038839],[-0.48927881302886383,0.3433055631698004,-0.399751649270512,0.6734511545677435,-0.23586069555528516,-0.06434197630238561,0.19737921783182644,0.6227907673644935,-0.07151491966970493,-0.09425784434845,0.2177472458674277,0.28085170375498353,-0.369768519514321],[0.48795428323909656,-0.46103824113459424,-0.5084806408077545,0.33740000001628995,-0.10077305634453075,-0.2109368218913541,0.2896276095331154,-0.04487368583995594,-0.07747637208163821,-0.4854303009402194,-0.4607319007392857,0.28007182336328157,0.07577782302976804],[-0.387062338514275,0.3834839696663891,0.2793637906954629,0.12872027649431783,0.7440903557675782,0.016453768144579828,0.1705705323252256,-0.5035256713677732,0.5943853274039459,0.0005502799443175277,0.14094884539482738,0.6281113140365798,0.31075112256930837],[-0.7170087316849246,0.545476474242171,0.18453424032826266,-0.2951797618965877,0.26081561596463604,0.022008397216626827,0.03613153694626673,0.35428492918008,0.162913067581907,-0.028176789474389313,0.1184482146909545,0.398390825195171,0.4116314379662927],[-0.1389410095544374,-0.2603011842661542,-0.03526132496837296,0.18490176115568135,0.45707406220316626,0.45795181551940856,0.4962384385398436,0.23422748885284295,0.5385505840622598,0.17607783008756892,-0.1791011764152176,-0.3845907760360963,0.5239250664311014],[-0.1684609759788247,-0.022567000058485283,-0.5454252875465785,0.38857316354508153,0.41196498990205954,0.5364152423834846,-0.12292766952039155,0.10602763690066232,0.24485449465177045,0.308361923437733,0.02122639242446754,-0.30002448303343826,0.060217651088189925],[0.2779215731549854,0.5389983899161621,-0.16378301726965006,-0.24843959608304095,-0.6543673090252237,0.13588741845205554,0.6009199749401668,0.5096293197524795,0.32799060550407905,0.23482050001595497,-0.27089362749516654,-0.6145201955087826,-0.028854384781296066],[-0.18974269661193666,0.16067394255870332,0.3427135798118626,-0.1044890687692318,-0.26866991293402204,0.42422341235617456,-0.34032914218927696,0.588504412385943,0.19248605291044343,-0.13101066166356368,-0.5694348113875627,0.4602493501456664,-0.48415164531213456],[-0.19915596218755444,0.05486984440136598,-0.5669875688915356,-0.14311578222895413,-0.31580528966292676,-0.34426971497165276,-0.00040174974209782055,-0.43027611975778474,0.1324457046971567,-0.5496088778903434,-0.06901619318181891,-0.5445387559263392,-0.27995033744725506],[-0.3327994593743069,0.37932501658692414,0.21101861425914176,-0.0274912730989461,-0.6056492387790982,-0.10248093428452068,-0.12845010319498917,-0.552725596778561,0.11672841371989998,0.37111607279216474,0.23220456463530834,-0.4042095216972405,-0.2721207623093038],[-0.45445037824152523,-0.15965317531139236,-0.2078126747691922,-0.4268609076871386,0.10161060487681246,0.39109175723329603,-0.17833200902844126,-0.24794903211603056,0.267876149294349,0.4424439787524551,-0.20186985064609997,0.37000358875758943,-0.3039615377579732],[-0.013620341625530205,0.33226830227460935,0.16555642886146182,-0.32160419150243014,-0.026422812643569066,0.2964867571301015,0.33248361688161576,0.2736258390322262,-0.2654861328035313,0.20065517105381434,-0.08289857590605243,-0.5858633718339366,-0.560361791778973],[0.03784902833616198,-0.09210188974487107,0.1540564610678969,-0.2943130073125988,-0.5452718322297913,-0.10163494818208996,0.3882724046242423,-0.26052475091418326,-0.264184509178509,-0.2595111797508796,-0.1427615352052609,-0.16536569474330298,-0.7348026268499754],[0.22368637045174172,0.20516421120651307,0.556371792230506,-0.6285644771362814,-0.02549701267099143,0.6362554715000269,0.19277621352510582,-0.1957864353468376,-0.005430167220151799,0.5167931300253243,-0.48718232354699165,0.47252066581265506,0.11370756577588548],[-0.23106607564365717,-0.6198623400414628,-0.44147332584744886,-0.4783567773284481,0.21103508862216774,0.24534884025282452,0.28838554886779527,0.4063539964187886,-0.07307550089851231,0.3308546151959352,-0.029561075225286462,0.5401730757631856,-0.4146027289283095],[-0.22172871301675373,0.14397768919923182,0.262804326861889,0.32455566461928914,0.21788011203457933,-0.36120889047438753,-0.12807005676416242,-0.44129669914816533,0.48585423129702754,-0.10849249590173837,-0.3050126126599105,-0.03040933210715467,0.09980134427127035],[0.38776023574341956,0.41544718757359705,0.36706661690167075,0.1095045454603864,0.09701059072984497,0.736594426420471,-0.12045352405888499,0.014879962717446495,-0.3687810571732433,-0.322953607943697,-0.04316583763329042,-0.5931046959212566,0.1535077572296365],[0.607846599086747,-0.3076234391919949,-0.4644169390315135,-0.30638844798764053,-0.02703123834377101,-0.26613362491094117,0.01958568818433505,0.6988087959565517,-0.20209269378756062,0.47272612926259533,0.06272553694901353,-0.6687785624569615,-0.48107222490010315],[0.3276937882689641,0.28521949233905336,-0.3475322809778953,-0.6251383606298136,-0.22819551223000598,0.03922609949343585,-0.30812289893013656,-0.19448397285558294,0.3479194123168623,-0.023130457980378223,-0.4930030097968908,0.4993627387488576,0.31740462889421633],[-0.09937296743060313,-0.0016718810689541098,-0.10756070812514411,0.006507107562162745,-0.1276009061786327,-0.49957024427180896,0.3780290917209377,0.2803862136559172,-0.2784101305693167,0.4425718810595192,0.18439188971358134,0.22188668091099933,0.2088176536506481],[-0.3007827865053531,-0.284035222464993,-0.4453830050585472,-0.11755395396960949,-0.556821466577831,-0.09477461234672965,-0.15405459796350168,-0.0893636908023794,0.07967843283304302,0.39228082633207007,-0.49701694370557864,-0.3358095073313199,-0.4394271810993202],[0.5640704982634097,-0.21287230876259322,0.31684878125908494,-0.6342686609612003,-0.689905223203046,-0.7267220764723819,0.22987749043902045,0.23557691973285222,0.0817681116827878,-0.4577952495804354,0.5431074178759224,0.007091467460422912,-0.5932677477846237],[-0.3606391487802445,-0.1664458310608553,0.21232560021798486,-0.40494029600143183,-0.30807576100372186,-0.2074769403533367,0.15628351537883084,0.1258544934201748,-0.29299503347247385,0.07665367072688739,-0.74571574946512,-0.1947697899239422,-0.6884006490827291],[-0.6481429778938377,0.293697297108095,0.11590792505522514,-0.4163392682104674,-0.49364137592966184,0.41007160549993493,0.17890919132307337,0.5346694550415408,0.25143534504716686,-0.5499691885629678,-0.42634020475130907,-0.3538298084613682,0.23340662862367295],[0.13745515194295102,0.669541370920767,0.3805716185894591,0.43718244950338225,0.36731095289559396,-0.2657456600735132,-0.3734831310562883,0.2662571859440668,-0.1593615097228912,-0.131515176849187,-0.2396129738559514,-0.4858477203375027,0.24955321227976754],[-0.46049294767959015,0.34458874043281773,0.26192171284934485,-0.3049595360858384,-0.42033409011429784,0.44462231408211506,-0.18977283671092354,0.22679406513647782,0.47132121724662707,0.25504661430400366,0.6586405029890449,-0.20598317116786363,-0.5043107744017774],[0.4043600376107606,-0.2036930160625361,0.22170555054863167,-0.5547037301666672,-0.27203611579498255,0.404630231686191,0.49810060070892737,0.22511255136233216,-0.2987644303036723,0.30978557438770205,-0.5586927096022928,-0.086471786107014,-0.5151472887052008],[-0.10350678262069823,-0.05801182842238531,-0.4702614037432387,0.38531455769669765,-0.40747765207466624,0.48171056585981326,0.13587384807198455,0.2379585355871068,0.21080948167898989,0.027195690579846082,0.32347047651123195,0.2869735335404606,-0.3033099646977936]]},{"inputs":[0,1,1,0,0,0,1,1,0,1,0,0,0],"outputs":[1,1,0,1],"biases":[0.3060580262011232,0.2762350279846162,0.4373787572310801,-0.4115099738787614],"weights":[[-0.45206983829523817,0.4161702016606216,-0.031132046520372395,0.18625739958039386],[0.40838022743450475,0.29348761196149487,-0.017210264530986452,0.5329851857643798],[-0.276096907676167,0.43377300530363533,0.1793221481550157,0.27654215661248027],[0.6000083325009451,0.17808948384496823,0.05966648463638916,0.1316732034985911],[-0.2706437865314729,-0.30915098088826914,0.0503275647600937,-0.16930849652393049],[-0.14933619724975683,-0.06024037790212823,0.23017597160994874,0.40729135275675166],[0.2974000699024234,0.17571225820365594,-0.19810906216010324,-0.14899989091862148],[0.12283249177175537,-0.5719785624001921,0.411120153161492,0.16052894431410028],[0.4428917197313449,-0.39662703312473147,-0.6780011748474558,-0.04091432806140105],[-0.09112287071680833,0.47836739922163973,-0.17394387921812157,0.19451760584068162],[-0.5764111667210294,0.16658446316839895,-0.23966436135002483,0.3652990329877701],[0.3969884494087271,0.13018860482954653,0.1301635118541711,0.3155484138824137],[-0.11771936543120519,0.4134997776647625,-0.04923378742562476,-0.6139973517220214]]}],"hash":-1032112232},"height":10,"width":8,"fitness":59561,"kills":0,"score":399382},{"id":"08f1770b-03a6-412d-add0-7a0d9e48d0b6","age":789624,"movements":71,"travelled":418.80540492468793,"brain":{"levels":[{"inputs":[0,0,0,0,0,0,0,0,0,0,0,0,0,0,0,0,0.9144332987929779,0.7648393297074052,0.686910796647491,0.9178082869884481,0.9191130932488133,0,0,0,0,0,0,0,0],"outputs":[1,0,1,0,1,0,1,1,0,1,1,0,1],"biases":[-0.5229374538048095,0.8981711554044409,-0.2601044428939212,0.6052610773739555,-0.955181311469087,-0.1350081903162954,0.10019114933040485,-0.03728327533254472,0.5255260838949827,-0.7362395732739198,-0.9439787397656132,0.10562127320935599,-0.3310360103168666],"weights":[[0.4700247837102145,0.24035694208691005,0.6067732124858203,-0.9904747440678763,0.7921894236190987,-0.5462600021585342,-0.02731628773615924,0.5342534510569166,0.19407013335442103,-0.0800933378594666,0.9854998219904996,-0.32170884220097795,0.6462432202763437],[0.10664528140409124,-0.5184719875197454,0.30925372245792904,-0.38787820208547497,-0.9577043115481707,0.7477552715478364,0.749180816385147,0.6580923980637141,0.8511294706678325,0.21219466679742127,-0.12658440746067212,0.527197339657836,0.644849558388271],[-0.9491058357245064,-0.8883132150468078,-0.13777004557999972,0.3301799764685778,0.4250693697085215,-0.31159813344847054,-0.1801318158567502,-0.4108046431572825,-0.919489227166419,-0.13912091922546588,0.954395749135696,0.9884245401245422,-0.7879849354822852],[-0.7889905331995781,-0.21516818177005081,0.42607480461287084,0.22180580779696046,0.3133250523785902,-0.8703166622131979,0.5210729721456411,-0.29554093213887445,-0.914516622945901,-0.4123029108940961,0.03252723452940032,0.9529673941695196,-0.30245395364019134],[-0.27115964822794236,-0.8559521783504143,0.415961534913593,-0.4950218222552063,0.8414350307295633,0.31774925397205145,0.11329701159167782,-0.9102835322144451,-0.3031330547590574,0.26436705176065933,0.21518700965243687,-0.7122021577247915,-0.425993563259806],[0.5023124799857634,-0.04108253672524942,-0.02864039215318792,0.2272884048019319,0.2076058229326987,-0.3392807265912494,0.23682018737540833,0.5816093082686027,-0.8207764125106962,0.0949474467648892,-0.42078732389255835,0.6710954884377238,0.23710364419778096],[-0.42798661399769067,-0.14419167742682437,-0.5584076931461435,0.13213037945253925,0.9470503800190015,0.010204872387515218,-0.30378354985519596,-0.09127456508054976,0.07297130102954674,0.09829508432467926,-0.3649712512963088,-0.5423313116447106,0.5454639528699605],[-0.7468000518044307,0.9336678372226386,-0.22197574248676633,-0.6462888503141477,-0.9232414004663216,0.8713849099663826,-0.9958102666741411,0.7141870875492751,0.7371791478982068,-0.5161798563896549,-0.16392324116589485,-0.12619558077721926,0.5890096965542078],[0.45147734147066276,0.31939517204611767,-0.8261939907528368,0.965515564586072,0.2614857906224406,0.6942629657910517,-0.7451487575679494,0.20739090733480192,0.9133559168390188,0.7248451834213681,0.5539276871717653,0.7136087459923182,-0.5841637263120356],[-0.25190782301985637,-0.1531080714629487,0.36617623256970444,0.10271472477952792,0.1530686653229154,-0.5171376857476577,-0.6370031848089266,-0.4730510549852456,-0.8401973410420871,0.371623252945001,0.07158444892457139,0.9917484704381172,0.009079319277286446],[0.8000777944998851,0.689933580245454,-0.12800963078350946,0.05936062754538329,-0.3574158031663408,-0.7760093134010293,-0.36902049531006065,-0.5284549477841927,0.06963499225099823,0.7148009518786307,-0.4591314800429629,0.9226616639766398,0.3888992560308855],[-0.2955742288314247,-0.1900203547373842,-0.11314792536628504,-0.6672982301715351,0.8635902517963905,-0.20043321616169663,-0.3055904296350418,-0.935322456538807,-0.8229377023633455,0.6549346158913978,0.7686774366437765,0.8670868157138105,0.6614760521237395],[0.41363945099179933,0.27128199378706563,0.0615374591290887,0.49561291425235354,0.7986110538329743,0.8446249299731392,0.09233108263398737,0.9236535463389668,-0.9187596136888905,-0.313541049545631,0.3224351941741539,0.7027305118853204,-0.07383678614981481],[0.90657693902197,0.12789948588575872,-0.08510833206099666,0.49974911750446016,-0.9789942980633086,0.06307804051446597,-0.5472330886066266,0.8510901612803383,0.24739448201532332,0.17340510288035715,0.2560619286450858,0.13739934479776128,-0.03398860326206976],[-0.4288186508555847,-0.4379283955041009,-0.5783984123557138,-0.5491696908161159,-0.508097738331287,-0.7176819274874262,0.057563643130441156,0.16455462855943037,-0.05137900777011395,0.49935761954737723,0.9403859493891982,0.2536875536597776,-0.7902213189635965],[-0.9576514274833889,-0.04001046220020266,0.21879788684595258,-0.8246638774343127,0.7546489113816224,0.5800993847222615,0.9529048565052314,0.7759362662184757,-0.4810385935894883,0.6454480217191672,-0.58771696001809,0.33244238443383556,0.9768529785250926],[0.8847543947562246,-0.29197498022752266,0.14264953253933266,-0.6623894779817578,-0.7943032160193588,0.45772137410258074,0.42122603618749954,0.6764634843649826,-0.356229630383496,0.957670865784835,-0.4066214450637755,-0.8729154411748408,0.702190622372822],[-0.8213594969588591,-0.691270816392358,0.5280883077448961,0.3304545055740984,0.6140504780116811,-0.881929310788953,0.7741219643964574,-0.5519558806891904,-0.8694297477768089,0.9815551084139476,0.2600620322955913,-0.7344456414948652,-0.4363188087672747],[0.7613156304594701,-0.3367648141384314,-0.7102514995976672,0.6215444710330353,0.5143917061517855,-0.008790067475005214,0.3622969633414441,-0.046551561099401395,-0.20078954944596772,0.2913958393113356,0.916051484345048,-0.9075705569297781,0.6258952925023171],[-0.5441121830569648,-0.9170103754217407,0.5613158283302742,0.1638409496729285,0.143536690928733,-0.5381084503941329,-0.6607930622473082,0.03928218423374408,-0.27982151817318845,-0.48114200013477504,-0.11190701037856798,-0.7621705801544627,0.39046693916340103],[0.0924997864636723,0.561421201761596,0.18193823754606564,-0.009265941250939491,0.2692413741358757,-0.8501474107049196,-0.44600671331931485,0.04401026381665796,-0.9969780197037164,-0.8682668929255744,-0.8290065239369211,0.17909752610583607,-0.7347724926335333],[-0.8422368609195274,-0.6542588191124052,0.34381495855245303,-0.7469634369298117,-0.9880212721193646,0.2286515797348394,0.8032529384193292,-0.8793249253051605,-0.7292441312565585,0.661821728390547,-0.9625998045987061,0.44961038131412057,-0.27538183699958574],[-0.5278937745734904,0.9590944536481756,0.3000943375502465,-0.18858564308490022,0.7455108570569731,0.49737806960099573,-0.5417503943278725,0.3270715329816465,-0.7869444524192528,-0.9643097908964844,-0.5690338423182879,0.5544255765431958,0.054315073420935],[-0.2687973500672769,-0.6967341162493443,-0.9604695435586521,-0.6414392635241168,0.817845976891505,0.9648633013008028,-0.5343646713658841,-0.48326251353309835,0.7924511355346389,0.5136400670821004,0.7865051725768473,0.08892516127631223,0.903030738981877],[-0.5125322947746229,0.7159625500968811,-0.27094706053967976,-0.6809991709929974,-0.12744398488626274,0.3883189630343358,-0.14635290691281533,-0.08828788497738072,0.3612767648682089,0.9180052784089756,0.07123625694686475,0.6024518037608182,0.4749781566048661],[0.770283190694135,0.8842584234929227,0.8459015728683676,0.5081001217641996,0.02105162258809057,-0.24792715122196518,0.4178480524683954,0.4868978272845945,0.5582965026160929,0.0863942099628976,0.02292685316869192,-0.1638282076023594,0.7016396305189185],[0.9793597153896549,-0.5310198993868092,0.7572749133786516,0.5295595622769107,-0.7112440278363736,-0.6705519895840528,-0.3118529217156665,0.9903812192538037,0.22185029112967714,0.4323969632071678,0.31055678298619505,-0.26859115758123076,0.8033716316828576],[0.12638640143121216,0.8677458906754756,-0.2167316023480803,0.2918863639916147,-0.06495887746797568,0.49931146400340753,-0.8892785079887007,-0.7920703956758226,0.3967710718020858,0.10492711954612033,-0.28882424017272035,-0.9274156262501703,-0.4377280004466022],[-0.10251194163656252,0.7307327441359832,-0.6779491647190448,0.1831481395036394,0.1659739069771926,0.9635054486667385,-0.1501843506682774,-0.566816667822978,0.87054443202695,-0.4889582821790841,-0.3630763003872841,0.7642101477798984,0.8616189101795]]},{"inputs":[1,0,1,0,1,0,1,1,0,1,1,0,1],"outputs":[1,1,0,1],"biases":[0.32955831871477637,0.8585446278123725,-0.9356023790652117,-0.9726661236484755],"weights":[[0.16896680935749253,-0.6756629750930854,0.24155105039086178,-0.15753608558968146],[-0.3543574762850652,-0.698284089084724,0.7147863800387362,0.9195458319558261],[-0.04497944599819004,0.5675940277688782,0.6789767772762254,0.6506706543719714],[-0.9986594064308421,0.27820229893340276,-0.010154401157398851,0.6770050782417432],[0.9485833450517387,-0.5098556454160452,-0.30223302297440613,0.3107450123041977],[-0.8032761096233227,-0.12814731432764126,0.05548733588207089,0.5173009220444671],[0.9675733427051763,0.7078007156438231,-0.7729333047805156,0.2799122841689967],[-0.4479593260854815,0.8114912464163564,0.8232585649427104,-0.8675027394137591],[0.6554492771710079,0.908711821299601,0.3280720078335617,0.5904990015259872],[0.7440567282768831,0.9947625905292712,-0.9603468422215646,-0.5304955752947536],[0.6084881573151815,0.5473177993506197,-0.43163196826134653,0.5291444914884615],[0.3315316729804263,0.5305491084739342,-0.0631932901764185,-0.07613139145499992],[0.7706206101317663,-0.7841623728240874,-0.3271808309221793,0.7246907062291323]]}],"hash":-882022837},"height":11,"width":11,"fitness":31020,"kills":0,"score":389880},{"id":"e64705b5-ddf9-4f65-bf22-d96b3685463c","age":552036,"movements":566,"travelled":324.3567289984107,"brain":{"levels":[{"inputs":[0.7091419294603772,0.6729115626407465,0.6722754184170655,0.7070620324167249,0.7872766792639095,0.9412591415212467,0,0,0,0,0,0,0,0,0,0,0,0,0,0.90707056763364,0.7563178070734509,0.6776718149129648,0.6430492698093283,0.6424413562271534,0.6756842189947873,0.7523391212833862,0.8994881902181507,0.7914401295591614,0.7091419294603776],"outputs":[1,0,0,0,0,1,0,0,0,0,0,1,0],"biases":[0.055056317103980575,-0.4897221596557947,0.6194904701109253,0.6857730642755967,-0.23012106050912598,0.2223442579487992,0.4636908254989608,0.5106683235892542,-0.28081481084994137,0.7708584049748799,0.24141161911636436,0.390097228771072,-0.32252494292377865],"weights":[[0.17113570100764366,0.6299207860114591,-0.2665901221598983,0.7373668950821541,-0.08904401938966386,-0.13602859083189653,-0.19769317125255165,0.7382433090309122,0.71262211536556,0.7475042518606142,-0.041067446503808155,-0.5797689429365762,0.4489659737135605],[0.7929680655079061,-0.5711360454147092,0.22428518450274157,0.20123624079600294,0.1956687933579187,0.4694567073290739,0.08119936070924429,-0.7082263081197706,0.06014358464637136,-0.32198462898345137,0.5862234771450411,0.3242129641848217,-0.3729173879175458],[-0.3273036299623052,0.1592588090175439,-0.7932180683346508,-0.6788123930664614,0.12150564880933179,-0.22143779186080764,-0.3421440138303191,-0.5264754277074265,-0.7294118436793842,0.3038007368941948,-0.8449744261387817,-0.8099821317482818,-0.5431915502881893],[-0.7521714785982216,-0.3972689560535546,0.6502998348389816,0.516838211506094,-0.5256928036521478,0.3123268603180052,0.837228686549666,0.7287070596253932,-0.5577867151307092,0.5127660214487363,-0.06999918845678586,0.5736759791698667,-0.7998999013210067],[-0.6145966208982016,-0.6163927843348529,0.6201074535593352,-0.2792929652853016,-0.7572718180408057,-0.05348310490513177,-0.5044962094261511,-0.03265346392257166,-0.3906825524990761,-0.7530550821568137,0.5082023278142449,-0.5019393661852092,0.29184976385216227],[0.3892520327891883,-0.704000655859456,-0.575800568909896,-0.6730840756861036,0.5912743239501144,0.5396382540982868,-0.03435765126979773,0.22328796443314378,-0.0407784000951218,-0.3135743271830783,0.02455473983254347,0.5874649484579756,0.5875341269848883],[0.09988362333454089,-0.1940971432675938,0.16486751516080966,-0.2851583379840724,0.14445164273061523,-0.8005644837156366,-0.7860214083421977,0.8768113828390751,0.11759083804581914,0.7213315396291325,0.13521433005278027,-0.09700645140230557,-0.1286474675399761],[-0.33522513611874644,-0.26594695855989053,-0.16981360584246766,-0.6452364632184779,0.10563716389005601,-0.6917786783322439,-0.8151039958899259,0.3812217543164051,0.394822390911292,-0.6596359372235049,-0.2686273506044125,0.4561958255565913,0.3859515711182846],[-0.15181389352096447,0.4185714338604644,-0.3150660766485065,-0.14735590297247728,0.006499677494400481,-0.49494869600568575,0.4929785758334463,-0.45960456548172784,-0.5118536540051332,0.7000832868469958,0.3852748670855154,-0.5007126472892356,0.6378459371899694],[0.5119553329215633,-0.23905362258397966,0.7302854610385092,0.09431079833409131,-0.5932757738713813,0.33531128888278355,-0.14928572901249806,0.6679356613720326,-0.2759502805136422,-0.5735141578671523,-0.25457878207109746,0.1065552682788676,0.5446803351262325],[0.7420746397141325,0.5190538800227715,0.5649813310214182,0.43448341841019456,-0.33992256937866894,-0.7295181622192493,-0.17286469002338622,0.8726715575566113,0.06125807768431607,-0.06857364651819844,-0.250998217778929,0.4393723800820312,-0.578935573195104],[-0.5104196501436432,0.33686524960540043,-0.5976771789395647,0.4870931935403537,0.6038312832415648,-0.15997048637645375,0.4909351863852833,-0.7276029317086964,0.30718270958883864,-0.22668451261176717,0.7949556884509587,0.5955053548964883,0.7816622438301074],[0.8316764345924639,-0.34481909197468197,-0.3973952393572325,0.47898532746111405,0.7294736215202768,-0.8789212844294344,-0.19544375433983976,-0.7021544756283439,0.16584572562719962,0.09333062769975617,-0.4276608949708972,0.43284520385953346,-0.040730167760016464],[-0.4354793306318394,-0.01027759969906073,-0.5456380682999578,-0.3439477995664469,0.48701162271922843,-0.36740638922577407,-0.39064889820490767,-0.04822008393979377,0.04526074120574751,-0.5181387149485369,-0.3740914434826898,-0.6079908703114254,-0.7116624692269231],[-0.7606089060349659,0.4076923163370165,-0.19099585450899062,-0.666602820302412,0.5206274696617673,-0.6802239021715922,0.31656887354821134,0.19715026245850242,0.35433563004387364,-0.1813612786289095,-0.8259615805586155,-0.6576946776837064,-0.6694683325265843],[0.8242962754053003,0.42239619610529217,-0.4137881526602124,-0.3692584302510246,-0.37221728875684085,-0.4090560286466214,-0.6796845591529683,0.7203685877843039,-0.16091943220875252,-0.625175954577929,-0.7096428545735529,-0.43239261917380584,0.001472912150438154],[0.43701731842045743,-0.2346449447297384,0.38545935772003115,0.7485238942564996,-0.7353319675027862,0.5304693773232262,-0.6973872293657938,-0.8980970791763426,-0.11054130044101736,-0.26617217940986226,-0.2673979360835869,0.5095360407489034,0.647451300020153],[-0.34314265709838687,-0.19114005975885823,-0.1373064887799289,-0.9055536599374919,-0.3037889159888397,-0.7834069309264957,0.6603531362548029,-0.4038764733749205,0.5316800270886289,-0.2923683528746929,0.21834372769091293,0.2722634364311817,0.1988612838313189],[-0.6337621750256208,-0.12625617029644823,-0.2020581699995022,0.4878335146570582,0.18708983120518552,0.6297032528463535,-0.5020152160208456,-0.27719953962323285,-0.35193097970803616,0.8181192904493362,0.4525386960842944,-0.21253834602997276,0.5286128215410267],[-0.5690761349142951,-0.1531500350843768,-0.5105171393351989,-0.20806055399257375,0.30617189330508465,0.5129060167311079,-0.1585524760180167,0.4522377389344231,-0.235429347731297,0.34658231828698866,0.23047603814830112,0.20849873567542057,0.626178071364341],[0.4067638320750292,-0.4931761746359775,0.5049249355670102,0.5412654679160109,-0.7049606400557598,-0.5773861963124772,0.05680152659643475,-0.28642259101608375,-0.007288006716894908,0.10384169720986436,-0.4797972169717786,0.3592073022380919,-0.39056228608618176],[0.7343252741056059,-0.7266471465549966,0.015703695738374133,-0.157608522996626,0.11434802051761161,0.10558692121117967,0.7971160023911363,-0.07689450295961595,-0.5059055494360292,-0.7530545131867148,-0.3450729930259747,-0.7629127652792433,-0.18701039260994837],[0.10244538056376344,-0.8177640199043645,0.5286830075322673,-0.7469326059763947,-0.7245607695586824,-0.6694911745515513,-0.19385789269708525,-0.29761046816923853,-0.4661911298807135,-0.2012092374553944,-0.0012758883641123958,0.8221583340857858,0.39749220371691824],[0.22396938122248405,-0.3709387243564323,-0.6736973472297086,-0.119256319640256,-0.11955402519523342,0.7378965239881441,-0.7589091335742705,0.4088923335857291,0.24510137239428298,0.13233923396126485,0.4976645493428805,-0.22296167241625683,-0.685744170385648],[0.7617430641253159,0.48805096871313297,-0.8567624575257972,0.40111371205113955,-0.7574360359324526,0.23002908584798604,-0.7959267932118524,0.19755633390557492,0.28555521754380303,-0.10372440509770638,0.12890581984410018,-0.5447013962786654,-0.551371056569946],[-0.4936953537885214,0.5924364699995656,0.3238651778836438,0.42862050775421406,-0.17342705463967792,0.43537329205261155,0.22353734215732174,0.09473051688758331,0.16450352025982423,0.3632617875000522,-0.49753387940335747,0.8017113444516586,0.7266123989205533],[-0.3030681044593222,0.7796803537402116,0.28800533134004974,-0.7248807132428307,0.2550970337974921,0.26729845913449013,-0.782649317036599,-0.41198212455067124,0.015586846014154353,-0.7771740265618637,-0.15643619829820393,0.4297011314568307,-0.7625273287221708],[-0.7205485072402158,0.7537176511458584,0.12421500586431682,0.49550138853462017,0.09574689861664053,-0.15794993376081898,-0.2720702013317101,0.48383029066519034,0.7308965017125095,-0.7193011193705403,-0.7873354111734336,-0.42217127734818355,-0.5420667773324455],[0.6950211827325249,-0.7603946893493122,0.5080166325879901,0.39440699474398677,0.7374345773112941,-0.764255369302094,0.22603589501553795,-0.7194284940581204,0.15432069207273263,-0.36165573942085877,-0.6774341747416385,0.6334777041021163,-0.3630977013354629]]},{"inputs":[1,0,0,0,0,1,0,0,0,0,0,1,0],"outputs":[0,1,1,1],"biases":[0.08923891190407343,0.4569785012179608,0.12204195666841056,-0.7120587464202787],"weights":[[-0.20128277140689949,0.6502796913267336,0.11876279358069163,-0.18077680912228178],[0.40913157956584967,-0.26602959336553883,-0.657637800687491,0.5900948766972307],[0.43944688247121355,-0.7221553299185434,0.6027100231717175,0.6252837807745721],[0.7309458894836187,0.5638414574522914,-0.43782128781554663,0.34426271931714275],[0.20614589568383987,-0.1822971021202704,-0.3014770040619129,0.20286116027042275],[-0.5606147266923764,0.12390286946479916,0.6916502310475358,-0.6277804046973993],[-0.7626486443952865,-0.3597659974486093,0.7566864987373844,0.26214205787048955],[-0.2246112838377556,-0.4277434059816558,-0.6740728254927445,0.7151951784011361],[-0.18062490273936355,0.854270276287337,0.27457912901237547,0.20765015356076982],[0.08122475285660834,0.1794964191515155,-0.6617874443135763,0.7074242487987388],[0.43147867966521575,0.28672688936947915,-0.07850971150621008,0.6899289777334034],[0.5013877183312965,-0.22606265407021614,0.5543079850193215,0.4451889493277935],[-0.7553443986979562,-0.5148846644577525,-0.18475683072936336,-0.22164689886530994]]}],"hash":1714131610},"height":15,"width":14,"fitness":51965,"kills":0,"score":366891},{"id":"c9d9b2b2-3b8e-415f-bb46-2f767807eb95","age":977211,"movements":59,"travelled":306.31569487813175,"brain":{"levels":[{"inputs":[0,0,0,0,0,0,0,0,0,0,0.9832841352650357,0.9317148532989786,0.9295751702520278,0.976288296089996,0,0,0,0,0,0,0,0,0,0,0,0,0,0,0],"outputs":[1,0,1,0,0,1,0,0,0,1,1,1,0],"biases":[-0.34712429493408337,-0.5893735426940632,-0.9210174300762968,-0.9339377498562698,0.7928391477788144,-0.09672796614203416,0.7966305271480139,0.8995369851858197,-0.1722508695490501,-0.9948825137844215,-0.7921227782988467,0.6836689219579795,0.9292516335380947],"weights":[[-0.9758554733395015,0.025316043010581657,-0.9091495327995098,-0.3338125371937877,0.6198364658646431,-0.521746009743618,-0.26882015590983177,0.49504133359406377,0.6452519252299986,-0.051773313262729825,0.7570823551188404,-0.12065314032686403,-0.6771948847282225],[0.7674711304757351,0.36397159253197264,0.12725835582547385,-0.2719032172849214,0.050214329888242704,-0.16944657293497634,0.4889173824784039,0.5095667915539923,-0.23764397083102962,0.19212669832994478,0.13389931735697425,-0.6251120677232678,-0.8565380179587252],[0.8496070205845381,-0.19955956764638705,-0.7966896292405989,-0.5972263186592228,0.1982737941366901,-0.7587531823866847,0.9006591958865517,-0.34785654756929185,0.6831638814928374,-0.23478284595102528,0.07946406083621516,0.5804637963664807,-0.1164495515443662],[-0.44058912336500833,-0.7810358257876708,0.17917251706766324,-0.6649308461868693,0.187778948891401,-0.5676436125776538,0.26846435245721834,-0.9080044642511611,-0.4527561198705472,0.054933515093480656,-0.8639765939607567,-0.11843679776337712,0.4749408548627443],[-0.7976812222056071,0.3979526789915051,-0.7484952045996742,0.8196369543478228,-0.547559431925994,0.6701966971291604,-0.20633656350642227,0.24629780645980803,-0.9774136238198539,0.03654275215580971,-0.24954711997420675,-0.10773270314357664,0.1698093302505692],[0.8299080461561328,-0.2037175221330274,-0.7138737388854708,-0.9483415609240666,-0.19757289610495232,-0.04000873147399853,-0.8942441110957071,-0.1776526909828653,-0.8565910921347886,-0.46021119891376006,0.280250446284539,0.5132201152772256,-0.8865433417827662],[0.9909872252025793,-0.5691249004095711,-0.6642563688279643,0.22895864887801132,0.10913865324082961,0.5181256695272518,-0.9626949049242857,0.14615067215814803,0.16960595127702738,0.724106020112629,-0.8610765976921497,-0.14163523830267133,-0.4093968710268385],[-0.7749810473376473,0.5374214301825211,-0.38219081109577213,-0.7403704951282448,-0.4253146856025716,-0.45505356078240156,0.07386228309798049,-0.6443098925507087,0.538643294169286,-0.8895149614306563,0.04759739697933818,0.14204080221045423,0.955272605283372],[-0.7980895892805866,0.7010818922479047,0.7368354907665167,-0.5486325623938944,-0.24029454125590877,0.8073153511399229,0.8973578332410559,-0.9050048930249543,0.0349437250134077,-0.7090377077856886,-0.41348474188728845,-0.325740786425295,-0.2603020425813154],[-0.6688196410711535,0.7709705074733095,0.770894436015197,0.6252344507367307,0.641872648086135,0.30497974356151647,0.08873171210911579,-0.7105265887017091,-0.2483991376573238,0.4917479532585971,0.7104422097785541,-0.04861867073049497,-0.8672563845379024],[-0.8291188736940209,-0.7953206177497674,-0.2582377381273022,0.4592674759453972,-0.06422488107177027,-0.24584929742803285,0.17317123354764563,-0.19403773027586002,-0.7422463863276751,0.8962230822745927,0.5471984583947047,0.7758857413220182,0.589017645808201],[-0.36260793519609735,0.19248593105958967,-0.35263007716495864,-0.5823016815511897,-0.6844388528082868,0.30925971559479626,-0.7982678279537401,-0.5892162913268346,-0.668838678353407,-0.5668150629715532,-0.3223104461246462,0.8659717648078922,0.1721603872953228],[0.7805205183400445,-0.400027878011056,0.9895034620898011,-0.5746589287856503,-0.12346554605249183,-0.08712821680225513,0.9672337870726082,0.46134167910480195,-0.5658753484113019,0.4821201356954923,-0.4385228572428803,0.3981287309188082,-0.5184766644639871],[0.1566177954493888,-0.8075258682878375,-0.7454514253169469,-0.9691821114340782,0.49780586000029814,0.2715630237561364,0.0031348165361719804,0.9261814598581519,-0.817981343979123,-0.5422081971232042,0.9750736294637878,0.5184499739263226,-0.8530117099262],[0.0824134650536048,-0.9446727034091009,-0.27716253358857323,0.6594793801030023,0.0921365926512272,0.5997001774502717,-0.5752721802102152,0.042943547367104484,0.570998773658558,0.0633175178739962,-0.4150870024473101,0.4852874143442325,